{"learner":{"attributes":{"scikit_learn":"{\"_estimator_type\": \"classifier\"}"},"feature_names":["purchases","time_spent","n_visits","customer_group_2","customer_group_3","customer_group_4","customer_group_5","customer_group_6","customer_group_7","customer_group_8","customer_group_9","onboarding_True"],"feature_types":["float","float","float","float","float","float","float","float","float","float","float","float"],"gradient_booster":{"model":{"cats":{"enc":[],"feature_segments":[],"sorted_idx":[]},"gbtree_model_param":{"num_parallel_tree":"100","num_trees":"100"},"iteration_indptr":[0,100],"tree_info":[0,0,0,0,0,0,0,0,0,0,0,0,0,0,0,0,0,0,0,0,0,0,0,0,0,0,0,0,0,0,0,0,0,0,0,0,0,0,0,0,0,0,0,0,0,0,0,0,0,0,0,0,0,0,0,0,0,0,0,0,0,0,0,0,0,0,0,0,0,0,0,0,0,0,0,0,0,0,0,0,0,0,0,0,0,0,0,0,0,0,0,0,0,0,0,0,0,0,0,0],"trees":[{"base_weights":[-2.0933314E-1,-1.6081429E0,1.0180993E0,-4.465167E-3,-1.6385608E-3,8.799697E-4,1.537525E0,-1.7592628E-3,3.924631E-3],"categories":[],"categories_nodes":[],"categories_segments":[],"categories_sizes":[],"default_left":[0,0,0,0,0,0,0,0,0],"id":0,"left_children":[1,3,5,-1,-1,-1,7,-1,-1],"loss_changes":[2.424017E2,1.5471329E1,2.5436348E1,0E0,0E0,0E0,9.380234E0,0E0,0E0],"parents":[2147483647,0,0,1,1,2,2,6,6],"right_children":[2,4,6,-1,-1,-1,8,-1,-1],"split_conditions":[2.8123736E-1,1.8749157E-1,5.624747E-1,-4.465167E-3,-1.6385608E-3,8.799697E-4,7.95321E-2,-1.7592628E-3,3.924631E-3],"split_indices":[2,2,2,0,0,0,1,0,0],"split_type":[0,0,0,0,0,0,0,0,0],"sum_hessian":[1.41182E2,6.5984535E1,7.519747E1,5.1791634E1,1.41929E1,3.3365765E1,4.1831703E1,1.7429876E0,4.008872E1],"tree_param":{"num_deleted":"0","num_feature":"12","num_nodes":"9","size_leaf_vector":"1"}},{"base_weights":[1.8839885E-1,-1.1382321E0,1.650196E0,-4.3363376E-3,-6.432203E-4,2.778147E-3,4.415179E-3],"categories":[],"categories_nodes":[],"categories_segments":[],"categories_sizes":[],"default_left":[0,0,0,0,0,0,0],"id":1,"left_children":[1,3,5,-1,-1,-1,-1],"loss_changes":[2.6896066E2,4.236396E1,6.186371E0,0E0,0E0,0E0,0E0],"parents":[2147483647,0,0,1,1,2,2],"right_children":[2,4,6,-1,-1,-1,-1],"split_conditions":[4.2185605E-1,1.8749157E-1,5.624747E-1,-4.3363376E-3,-6.432203E-4,2.778147E-3,4.415179E-3],"split_indices":[2,2,2,0,0,0,0],"split_type":[0,0,0,0,0,0,0],"sum_hessian":[1.3869202E2,7.270749E1,6.5984535E1,4.108471E1,3.1622776E1,1.8425869E1,4.7558662E1],"tree_param":{"num_deleted":"0","num_feature":"12","num_nodes":"7","size_leaf_vector":"1"}},{"base_weights":[2.2604004E-2,-4.062284E-3,9.8271424E-1,3.9750425E-4,1.3352724E0,2.4499833E-3,3.936891E-3],"categories":[],"categories_nodes":[],"categories_segments":[],"categories_sizes":[],"default_left":[0,0,0,0,0,0,0],"id":2,"left_children":[1,-1,3,-1,5,-1,-1],"loss_changes":[2.2074075E2,0E0,2.4743484E1,0E0,5.7645035E0,0E0,0E0],"parents":[2147483647,0,0,2,2,4,4],"right_children":[2,-1,4,-1,6,-1,-1],"split_conditions":[2.3436446E-1,-4.062284E-3,4.2185605E-1,3.9750425E-4,6.562205E-1,2.4499833E-3,3.936891E-3],"split_indices":[2,0,2,0,2,0,0],"split_type":[0,0,0,0,0,0,0],"sum_hessian":[1.3396106E2,4.805666E1,8.5904396E1,2.5895817E1,6.0008575E1,2.963079E1,3.0377785E1],"tree_param":{"num_deleted":"0","num_feature":"12","num_nodes":"7","size_leaf_vector":"1"}},{"base_weights":[-1.350957E-1,-1.6269519E0,9.3717605E-1,-4.5114784E-3,-2.2111263E-3,6.295804E-4,3.903312E-3],"categories":[],"categories_nodes":[],"categories_segments":[],"categories_sizes":[],"default_left":[0,0,0,0,0,0,0],"id":3,"left_children":[1,3,5,-1,-1,-1,-1],"loss_changes":[2.4098141E2,1.1281342E1,4.0814873E1,0E0,0E0,0E0,0E0],"parents":[2147483647,0,0,1,1,2,2],"right_children":[2,4,6,-1,-1,-1,-1],"split_conditions":[2.8123736E-1,1.8749157E-1,5.624747E-1,-4.5114784E-3,-2.2111263E-3,6.295804E-4,3.903312E-3],"split_indices":[2,2,2,0,0,0,0],"split_type":[0,0,0,0,0,0,0],"sum_hessian":[1.5064394E2,6.2996555E1,8.764738E1,4.631367E1,1.6682882E1,4.4321686E1,4.3325695E1],"tree_param":{"num_deleted":"0","num_feature":"12","num_nodes":"7","size_leaf_vector":"1"}},{"base_weights":[-1.639626E-1,-1.2922561E0,1.2914412E0,-4.268228E-3,-9.765348E-4,2.017365E-3,3.754437E-3],"categories":[],"categories_nodes":[],"categories_segments":[],"categories_sizes":[],"default_left":[0,0,0,0,0,0,0],"id":4,"left_children":[1,3,5,-1,-1,-1,-1],"loss_changes":[2.2284271E2,3.296837E1,7.3091736E0,0E0,0E0,0E0,0E0],"parents":[2147483647,0,0,1,1,2,2],"right_children":[2,4,6,-1,-1,-1,-1],"split_conditions":[3.7498313E-1,1.8749157E-1,5.624747E-1,-4.268228E-3,-9.765348E-4,2.017365E-3,3.754437E-3],"split_indices":[2,2,2,0,0,0,0],"split_type":[0,0,0,0,0,0,0],"sum_hessian":[1.3570404E2,7.644246E1,5.926158E1,4.930165E1,2.7140808E1,2.2409842E1,3.6851738E1],"tree_param":{"num_deleted":"0","num_feature":"12","num_nodes":"7","size_leaf_vector":"1"}},{"base_weights":[1.6894628E-1,-1.6237458E0,2.7453438E-3,-4.3453965E-3,-1.1898491E-3],"categories":[],"categories_nodes":[],"categories_segments":[],"categories_sizes":[],"default_left":[0,0,0,0,0],"id":5,"left_children":[1,3,-1,-1,-1],"loss_changes":[2.5085194E2,1.0712875E1,0E0,0E0,0E0],"parents":[2147483647,0,0,1,1],"right_children":[2,4,-1,-1,-1],"split_conditions":[2.3436446E-1,1.8749157E-1,2.7453438E-3,-4.3453965E-3,-1.1898491E-3],"split_indices":[2,2,0,0,0],"split_type":[0,0,0,0,0],"sum_hessian":[1.4342299E2,5.0546642E1,9.287634E1,4.3325695E1,7.220949E0],"tree_param":{"num_deleted":"0","num_feature":"12","num_nodes":"5","size_leaf_vector":"1"}},{"base_weights":[1.20235115E-1],"categories":[],"categories_nodes":[],"categories_segments":[],"categories_sizes":[],"default_left":[0],"id":6,"left_children":[-1],"loss_changes":[0E0],"parents":[2147483647],"right_children":[-1],"split_conditions":[2.8838764E-4],"split_indices":[0],"split_type":[0],"sum_hessian":[1.4541498E2],"tree_param":{"num_deleted":"0","num_feature":"12","num_nodes":"1","size_leaf_vector":"1"}},{"base_weights":[5.1981006E-2],"categories":[],"categories_nodes":[],"categories_segments":[],"categories_sizes":[],"default_left":[0],"id":7,"left_children":[-1],"loss_changes":[0E0],"parents":[2147483647],"right_children":[-1],"split_conditions":[1.2467804E-4],"split_indices":[0],"split_type":[0],"sum_hessian":[1.4641096E2],"tree_param":{"num_deleted":"0","num_feature":"12","num_nodes":"1","size_leaf_vector":"1"}},{"base_weights":[-5.477626E-2,-1.5853775E0,1.0466845E0,-4.511478E-3,-2.6715195E-3,4.2837826E-4,3.178842E-3],"categories":[],"categories_nodes":[],"categories_segments":[],"categories_sizes":[],"default_left":[0,0,0,0,0,0,0],"id":8,"left_children":[1,3,5,-1,-1,-1,-1],"loss_changes":[2.317216E2,8.016525E0,1.9333626E1,0E0,0E0,0E0,0E0],"parents":[2147483647,0,0,1,1,2,2],"right_children":[2,4,6,-1,-1,-1,-1],"split_conditions":[2.8123736E-1,1.4061868E-1,4.2185605E-1,-4.511478E-3,-2.6715195E-3,4.2837826E-4,3.178842E-3],"split_indices":[2,2,2,0,0,0,0],"split_type":[0,0,0,0,0,0,0],"sum_hessian":[1.3744702E2,5.7518593E1,7.992844E1,3.535775E1,2.2160843E1,1.9421864E1,6.0506573E1],"tree_param":{"num_deleted":"0","num_feature":"12","num_nodes":"7","size_leaf_vector":"1"}},{"base_weights":[4.0744405E-2,-1.4727947E0,1.2341118E0,-4.5114784E-3,-2.0541511E-3,1.6594832E-3,3.8648003E-3],"categories":[],"categories_nodes":[],"categories_segments":[],"categories_sizes":[],"default_left":[0,0,0,0,0,0,0],"id":9,"left_children":[1,3,5,-1,-1,-1,-1],"loss_changes":[2.509564E2,1.5409332E1,1.5889893E1,0E0,0E0,0E0,0E0],"parents":[2147483647,0,0,1,1,2,2],"right_children":[2,4,6,-1,-1,-1,-1],"split_conditions":[2.8123736E-1,1.4061868E-1,5.156018E-1,-4.5114784E-3,-2.0541511E-3,1.6594832E-3,3.8648003E-3],"split_indices":[2,2,2,0,0,0,0],"split_type":[0,0,0,0,0,0,0],"sum_hessian":[1.3894102E2,6.1253567E1,7.7687454E1,3.6851738E1,2.4401827E1,3.1871775E1,4.5815678E1],"tree_param":{"num_deleted":"0","num_feature":"12","num_nodes":"7","size_leaf_vector":"1"}},{"base_weights":[2.1425342E-2,-3.6891731E-3,1.205507E0,6.323622E-1,4.15227E-3,1.9103352E-3,-7.421517E-4],"categories":[],"categories_nodes":[],"categories_segments":[],"categories_sizes":[],"default_left":[0,0,0,0,0,0,0],"id":10,"left_children":[1,-1,3,5,-1,-1,-1],"loss_changes":[2.6208636E2,0E0,2.4306068E1,5.964617E0,0E0,0E0,0E0],"parents":[2147483647,0,0,2,2,3,3],"right_children":[2,-1,4,6,-1,-1,-1],"split_conditions":[2.8123736E-1,-3.6891731E-3,5.624747E-1,1E0,4.15227E-3,1.9103352E-3,-7.421517E-4],"split_indices":[2,0,2,8,0,0,0],"split_type":[0,0,0,0,0,0,0],"sum_hessian":[1.41929E2,6.1253567E1,8.067543E1,3.8594727E1,4.2080704E1,3.2867767E1,5.7269597E0],"tree_param":{"num_deleted":"0","num_feature":"12","num_nodes":"7","size_leaf_vector":"1"}},{"base_weights":[-1.8210478E-1,-1.4984491E0,2.335473E-3,-4.5114784E-3,-2.2225147E-3],"categories":[],"categories_nodes":[],"categories_segments":[],"categories_sizes":[],"default_left":[0,0,0,0,0],"id":11,"left_children":[1,3,-1,-1,-1],"loss_changes":[2.041939E2,1.3723999E1,0E0,0E0,0E0],"parents":[2147483647,0,0,1,1],"right_children":[2,4,-1,-1,-1],"split_conditions":[2.8123736E-1,1.4061868E-1,2.335473E-3,-4.5114784E-3,-2.2225147E-3],"split_indices":[2,2,0,0,0],"split_type":[0,0,0,0,0],"sum_hessian":[1.3421005E2,6.2747555E1,7.1462494E1,3.7598736E1,2.5148823E1],"tree_param":{"num_deleted":"0","num_feature":"12","num_nodes":"5","size_leaf_vector":"1"}},{"base_weights":[1.6322792E-1,-1.5547539E0,1.1059645E0,-4.511478E-3,-1.9848621E-3,3.0488195E-4,1.5852367E0,3.9274436E-3,-3.8316735E-4],"categories":[],"categories_nodes":[],"categories_segments":[],"categories_sizes":[],"default_left":[0,0,0,0,0,0,0,0,0],"id":12,"left_children":[1,3,5,-1,-1,-1,7,-1,-1],"loss_changes":[2.2422296E2,1.1635513E1,4.1936295E1,0E0,0E0,0E0,5.4661407E0,0E0,0E0],"parents":[2147483647,0,0,1,1,2,2,6,6],"right_children":[2,4,6,-1,-1,-1,8,-1,-1],"split_conditions":[2.3436446E-1,1.4061868E-1,4.2185605E-1,-4.511478E-3,-1.9848621E-3,3.0488195E-4,9.771636E-1,3.9274436E-3,-3.8316735E-4],"split_indices":[2,2,2,0,0,0,1,0,0],"split_type":[0,0,0,0,0,0,0,0,0],"sum_hessian":[1.3844302E2,4.9052654E1,8.9390366E1,3.386376E1,1.5188892E1,2.9381792E1,6.0008575E1,5.8265587E1,1.7429876E0],"tree_param":{"num_deleted":"0","num_feature":"12","num_nodes":"9","size_leaf_vector":"1"}},{"base_weights":[7.864191E-2,-1.6458457E0,1.0213618E0,-4.511478E-3,-2.7600736E-3,1.1326337E-1,3.8229192E-3,2.0938138E-3,-3.0810924E-4],"categories":[],"categories_nodes":[],"categories_segments":[],"categories_sizes":[],"default_left":[0,0,0,0,0,0,0,0,0],"id":13,"left_children":[1,3,5,-1,-1,7,-1,-1,-1],"loss_changes":[2.3478322E2,5.9413147E0,4.8543785E1,0E0,0E0,6.630052E0,0E0,0E0,0E0],"parents":[2147483647,0,0,1,1,2,2,5,5],"right_children":[2,4,6,-1,-1,8,-1,-1,-1],"split_conditions":[2.3436446E-1,1.4061868E-1,4.6872893E-1,-4.511478E-3,-2.7600736E-3,3.83763E-1,3.8229192E-3,2.0938138E-3,-3.0810924E-4],"split_indices":[2,2,2,0,0,0,0,0,0],"split_type":[0,0,0,0,0,0,0,0,0],"sum_hessian":[1.4441898E2,5.104464E1,9.337434E1,3.4610756E1,1.6433884E1,3.6104744E1,5.7269596E1,8.714938E0,2.7389807E1],"tree_param":{"num_deleted":"0","num_feature":"12","num_nodes":"9","size_leaf_vector":"1"}},{"base_weights":[-2.5749663E-2,-1.6715642E0,9.204817E-1,-4.5114784E-3,-2.549256E-3,-2.73531E-2,1.440391E0,-4.2981698E-4,3.5157779E-3,4.2156014E-3,2.7130616E-3],"categories":[],"categories_nodes":[],"categories_segments":[],"categories_sizes":[],"default_left":[0,0,0,0,0,0,0,0,0,0,0],"id":14,"left_children":[1,3,5,-1,-1,7,9,-1,-1,-1,-1],"loss_changes":[2.2413126E2,6.6959076E0,4.5032143E1,0E0,0E0,7.339252E0,5.7886124E0,0E0,0E0,0E0,0E0],"parents":[2147483647,0,0,1,1,2,2,5,5,6,6],"right_children":[2,4,6,-1,-1,8,10,-1,-1,-1,-1],"split_conditions":[2.3436446E-1,1.4061868E-1,4.2185605E-1,-4.5114784E-3,-2.549256E-3,1E0,1E0,-4.2981698E-4,3.5157779E-3,4.2156014E-3,2.7130616E-3],"split_indices":[2,2,2,0,0,10,11,0,0,0,0],"split_type":[0,0,0,0,0,0,0,0,0,0,0],"sum_hessian":[1.4392099E2,5.2538628E1,9.1382355E1,3.9092724E1,1.3445905E1,3.236977E1,5.9012585E1,2.9381792E1,2.987979E0,2.9132793E1,2.987979E1],"tree_param":{"num_deleted":"0","num_feature":"12","num_nodes":"11","size_leaf_vector":"1"}},{"base_weights":[-8.934407E-2,-1.5561031E0,1.1159685E0,-4.5114784E-3,-2.6193361E-3,1.1147123E-3,3.486331E-3],"categories":[],"categories_nodes":[],"categories_segments":[],"categories_sizes":[],"default_left":[0,0,0,0,0,0,0],"id":15,"left_children":[1,3,5,-1,-1,-1,-1],"loss_changes":[2.654435E2,1.0208969E1,1.811766E1,0E0,0E0,0E0,0E0],"parents":[2147483647,0,0,1,1,2,2],"right_children":[2,4,6,-1,-1,-1,-1],"split_conditions":[2.8123736E-1,1.4061868E-1,4.6872893E-1,-4.5114784E-3,-2.6193361E-3,1.1147123E-3,3.486331E-3],"split_indices":[2,2,2,0,0,0,0],"split_type":[0,0,0,0,0,0,0],"sum_hessian":[1.5014594E2,6.772752E1,8.241842E1,3.9839718E1,2.7887802E1,2.81368E1,5.4281616E1],"tree_param":{"num_deleted":"0","num_feature":"12","num_nodes":"7","size_leaf_vector":"1"}},{"base_weights":[7.113857E-2,-1.5112519E0,2.8784003E-3,-4.456747E-3,-5.4223645E-1,-2.208E-3,1.1548254E-3],"categories":[],"categories_nodes":[],"categories_segments":[],"categories_sizes":[],"default_left":[0,0,0,0,0,0,0],"id":16,"left_children":[1,3,-1,-1,5,-1,-1],"loss_changes":[2.5532224E2,2.0002457E1,0E0,0E0,6.075487E0,0E0,0E0],"parents":[2147483647,0,0,1,1,4,4],"right_children":[2,4,-1,-1,6,-1,-1],"split_conditions":[2.8123736E-1,1.8749157E-1,2.8784003E-3,-4.456747E-3,7.0170516E-1,-2.208E-3,1.1548254E-3],"split_indices":[2,2,0,0,1,0,0],"split_type":[0,0,0,0,0,0,0],"sum_hessian":[1.4292499E2,5.951058E1,8.341441E1,4.382369E1,1.5686889E1,1.1453919E1,4.23297E0],"tree_param":{"num_deleted":"0","num_feature":"12","num_nodes":"7","size_leaf_vector":"1"}},{"base_weights":[8.896258E-2,-1.0677067E0,1.5280743E0,-3.9006227E-3,-1.9336214E-4,2.9484478E-3,4.427686E-3],"categories":[],"categories_nodes":[],"categories_segments":[],"categories_sizes":[],"default_left":[0,0,0,0,0,0,0],"id":17,"left_children":[1,3,5,-1,-1,-1,-1],"loss_changes":[2.3998198E2,4.406752E1,6.102707E0,0E0,0E0,0E0,0E0],"parents":[2147483647,0,0,1,1,2,2],"right_children":[2,4,6,-1,-1,-1,-1],"split_conditions":[4.2185605E-1,2.3436446E-1,6.562205E-1,-3.9006227E-3,-1.9336214E-4,2.9484478E-3,4.427686E-3],"split_indices":[2,2,2,0,0,0,0],"split_type":[0,0,0,0,0,0,0],"sum_hessian":[1.4416998E2,7.992844E1,6.424155E1,5.104464E1,2.8883797E1,3.3116764E1,3.112478E1],"tree_param":{"num_deleted":"0","num_feature":"12","num_nodes":"7","size_leaf_vector":"1"}},{"base_weights":[-1.4394627E-2,-3.6868877E-3,1.1400201E0,5.8508736E-1,4.089165E-3,2.3532186E-3,4.1955712E-4],"categories":[],"categories_nodes":[],"categories_segments":[],"categories_sizes":[],"default_left":[0,0,0,0,0,0,0],"id":18,"left_children":[1,-1,3,5,-1,-1,-1],"loss_changes":[2.6087524E2,0E0,2.6458382E1,6.9162235E0,0E0,0E0,0E0],"parents":[2147483647,0,0,2,2,3,3],"right_children":[2,-1,4,6,-1,-1,-1],"split_conditions":[2.8123736E-1,-3.6868877E-3,5.624747E-1,5.049331E-1,4.089165E-3,2.3532186E-3,4.1955712E-4],"split_indices":[2,0,2,1,0,0,0],"split_type":[0,0,0,0,0,0,0],"sum_hessian":[1.4840295E2,6.3992546E1,8.44104E1,4.2578697E1,4.1831703E1,2.1662848E1,2.0915852E1],"tree_param":{"num_deleted":"0","num_feature":"12","num_nodes":"7","size_leaf_vector":"1"}},{"base_weights":[-7.33282E-2],"categories":[],"categories_nodes":[],"categories_segments":[],"categories_sizes":[],"default_left":[0],"id":19,"left_children":[-1],"loss_changes":[0E0],"parents":[2147483647],"right_children":[-1],"split_conditions":[-1.7587995E-4],"split_indices":[0],"split_type":[0],"sum_hessian":[1.3719803E2],"tree_param":{"num_deleted":"0","num_feature":"12","num_nodes":"1","size_leaf_vector":"1"}},{"base_weights":[2.2161834E-2,-1.6676902E0,1.1195946E0,-4.356112E-3,-2.3441142E-3,1.4553438E-1,3.7508972E-3,-3.4411612E-3,6.9019065E-4],"categories":[],"categories_nodes":[],"categories_segments":[],"categories_sizes":[],"default_left":[0,0,0,0,0,0,0,0,0],"id":20,"left_children":[1,3,5,-1,-1,7,-1,-1,-1],"loss_changes":[2.6505426E2,5.767975E0,3.7495186E1,0E0,0E0,6.099691E0,0E0,0E0,0E0],"parents":[2147483647,0,0,1,1,2,2,5,5],"right_children":[2,4,6,-1,-1,8,-1,-1,-1],"split_conditions":[2.3436446E-1,1.8749157E-1,4.2185605E-1,-4.356112E-3,-2.3441142E-3,1.2697405E-1,3.7508972E-3,-3.4411612E-3,6.9019065E-4],"split_indices":[2,2,2,0,0,1,0,0,0],"split_type":[0,0,0,0,0,0,0,0,0],"sum_hessian":[1.4292499E2,5.62736E1,8.665139E1,4.631367E1,9.959929E0,2.7140808E1,5.951058E1,2.2409842E0,2.4899824E1],"tree_param":{"num_deleted":"0","num_feature":"12","num_nodes":"9","size_leaf_vector":"1"}},{"base_weights":[-8.6071E-2,-1.0425426E-2,-6.1558974E-1,-1.6119993E0,1.2395835E0,-4.017489E-3,5.9959275E-1,-4.213559E-3,-1.6216603E-3,5.40984E-1,4.3802634E-3,3.8368702E-3,-4.5559506E-4,2.4367126E-3,3.048819E-4],"categories":[],"categories_nodes":[],"categories_segments":[],"categories_sizes":[],"default_left":[0,0,0,0,0,0,0,0,0,0,0,0,0,0,0],"id":21,"left_children":[1,3,5,7,9,-1,11,-1,-1,13,-1,-1,-1,-1,-1],"loss_changes":[5.8247056E0,2.5472838E2,2.3400045E1,7.5546722E0,2.9287415E1,0E0,6.6847625E0,0E0,0E0,6.4116173E0,0E0,0E0,0E0,0E0,0E0],"parents":[2147483647,0,0,1,1,2,2,3,3,4,4,6,6,9,9],"right_children":[2,4,6,8,10,-1,12,-1,-1,14,-1,-1,-1,-1,-1],"split_conditions":[1E0,2.8123736E-1,2.8123736E-1,2.3436446E-1,5.624747E-1,-4.017489E-3,4.0336952E-1,-4.213559E-3,-1.6216603E-3,4.936091E-1,4.3802634E-3,3.8368702E-3,-4.5559506E-4,2.4367126E-3,3.048819E-4],"split_indices":[9,2,2,2,2,0,1,0,0,1,0,0,0,0,0],"split_type":[0,0,0,0,0,0,0,0,0,0,0,0,0,0,0],"sum_hessian":[1.4541498E2,1.272381E2,1.8176872E1,5.5775604E1,7.1462494E1,9.710932E0,8.46594E0,4.830566E1,7.4699473E0,3.261877E1,3.8843727E1,3.7349737E0,4.7309666E0,1.5188892E1,1.7429876E1],"tree_param":{"num_deleted":"0","num_feature":"12","num_nodes":"15","size_leaf_vector":"1"}},{"base_weights":[6.0527556E-2,-4.1261697E-3,1.0153898E0,9.929334E-4,4.032799E-3],"categories":[],"categories_nodes":[],"categories_segments":[],"categories_sizes":[],"default_left":[0,0,0,0,0],"id":22,"left_children":[1,-1,3,-1,-1],"loss_changes":[2.4261136E2,0E0,3.7199318E1,0E0,0E0],"parents":[2147483647,0,0,2,2],"right_children":[2,-1,4,-1,-1],"split_conditions":[2.3436446E-1,-4.1261697E-3,5.624747E-1,9.929334E-4,4.032799E-3],"split_indices":[2,0,2,0,0],"split_type":[0,0,0,0,0],"sum_hessian":[1.42676E2,4.979965E1,9.287634E1,4.8803654E1,4.407269E1],"tree_param":{"num_deleted":"0","num_feature":"12","num_nodes":"5","size_leaf_vector":"1"}},{"base_weights":[-4.7655802E-2,-3.329123E-3,1.2504944E0,1.7996142E-3,3.8179918E-3],"categories":[],"categories_nodes":[],"categories_segments":[],"categories_sizes":[],"default_left":[0,0,0,0,0],"id":23,"left_children":[1,-1,3,-1,-1],"loss_changes":[2.4391632E2,0E0,1.2157692E1,0E0,0E0],"parents":[2147483647,0,0,2,2],"right_children":[2,-1,4,-1,-1],"split_conditions":[3.2811025E-1,-3.329123E-3,5.624747E-1,1.7996142E-3,3.8179918E-3],"split_indices":[2,0,2,0,0],"split_type":[0,0,0,0,0],"sum_hessian":[1.40186E2,6.897251E1,7.121349E1,2.8883797E1,4.23297E1],"tree_param":{"num_deleted":"0","num_feature":"12","num_nodes":"5","size_leaf_vector":"1"}},{"base_weights":[-9.2747085E-2,-3.311799E-3,1.1858999E0,4.768946E-4,3.4498114E-3],"categories":[],"categories_nodes":[],"categories_segments":[],"categories_sizes":[],"default_left":[0,0,0,0,0],"id":24,"left_children":[1,-1,3,-1,-1],"loss_changes":[2.2472337E2,0E0,1.7059662E1,0E0,0E0],"parents":[2147483647,0,0,2,2],"right_children":[2,-1,4,-1,-1],"split_conditions":[3.2811025E-1,-3.311799E-3,4.2185605E-1,4.768946E-4,3.4498114E-3],"split_indices":[2,0,2,0,0],"split_type":[0,0,0,0,0],"sum_hessian":[1.3645103E2,6.797652E1,6.847452E1,1.3943901E1,5.4530613E1],"tree_param":{"num_deleted":"0","num_feature":"12","num_nodes":"5","size_leaf_vector":"1"}},{"base_weights":[1.4130312E-1,-1.5998075E0,1.0927298E0,-4.511478E-3,-2.3363468E-3,6.393514E-4,3.9063045E-3],"categories":[],"categories_nodes":[],"categories_segments":[],"categories_sizes":[],"default_left":[0,0,0,0,0,0,0],"id":25,"left_children":[1,3,5,-1,-1,-1,-1],"loss_changes":[2.3346104E2,8.760246E0,4.0348366E1,0E0,0E0,0E0,0E0],"parents":[2147483647,0,0,1,1,2,2],"right_children":[2,4,6,-1,-1,-1,-1],"split_conditions":[2.3436446E-1,1.4061868E-1,4.6872893E-1,-4.511478E-3,-2.3363468E-3,6.393514E-4,3.9063045E-3],"split_indices":[2,2,2,0,0,0,0],"split_type":[0,0,0,0,0,0,0],"sum_hessian":[1.40933E2,4.979965E1,9.1133354E1,3.4361755E1,1.5437891E1,3.5855747E1,5.527761E1],"tree_param":{"num_deleted":"0","num_feature":"12","num_nodes":"7","size_leaf_vector":"1"}},{"base_weights":[5.9822958E-2,-3.6432932E-3,1.1611956E0,9.6396264E-4,3.5090714E-3],"categories":[],"categories_nodes":[],"categories_segments":[],"categories_sizes":[],"default_left":[0,0,0,0,0],"id":26,"left_children":[1,-1,3,-1,-1],"loss_changes":[2.4549265E2,0E0,1.9058685E1,0E0,0E0],"parents":[2147483647,0,0,2,2],"right_children":[2,-1,4,-1,-1],"split_conditions":[2.8123736E-1,-3.6432932E-3,4.6872893E-1,9.6396264E-4,3.5090714E-3],"split_indices":[2,0,2,0,0],"split_type":[0,0,0,0,0],"sum_hessian":[1.41182E2,5.801659E1,8.316541E1,2.3654833E1,5.951058E1],"tree_param":{"num_deleted":"0","num_feature":"12","num_nodes":"5","size_leaf_vector":"1"}},{"base_weights":[5.718003E-2],"categories":[],"categories_nodes":[],"categories_segments":[],"categories_sizes":[],"default_left":[0],"id":27,"left_children":[-1],"loss_changes":[0E0],"parents":[2147483647],"right_children":[-1],"split_conditions":[1.3714806E-4],"split_indices":[0],"split_type":[0],"sum_hessian":[1.5014594E2],"tree_param":{"num_deleted":"0","num_feature":"12","num_nodes":"1","size_leaf_vector":"1"}},{"base_weights":[-8.635599E-2],"categories":[],"categories_nodes":[],"categories_segments":[],"categories_sizes":[],"default_left":[0],"id":28,"left_children":[-1],"loss_changes":[0E0],"parents":[2147483647],"right_children":[-1],"split_conditions":[-2.0712752E-4],"split_indices":[0],"split_type":[0],"sum_hessian":[1.3819402E2],"tree_param":{"num_deleted":"0","num_feature":"12","num_nodes":"1","size_leaf_vector":"1"}},{"base_weights":[1.3048685E-1,-4.082298E-3,1.0723754E0,2.6440833E-4,1.4902381E0,2.4639394E-3,4.091005E-3],"categories":[],"categories_nodes":[],"categories_segments":[],"categories_sizes":[],"default_left":[0,0,0,0,0,0,0],"id":29,"left_children":[1,-1,3,-1,5,-1,-1],"loss_changes":[2.5571344E2,0E0,3.9342293E1,0E0,6.8033752E0,0E0,0E0],"parents":[2147483647,0,0,2,2,4,4],"right_children":[2,-1,4,-1,6,-1,-1],"split_conditions":[2.3436446E-1,-4.082298E-3,4.2185605E-1,2.6440833E-4,5.624747E-1,2.4639394E-3,4.091005E-3],"split_indices":[2,0,2,0,2,0,0],"split_type":[0,0,0,0,0,0,0],"sum_hessian":[1.4815395E2,5.0297646E1,9.785631E1,2.963079E1,6.822552E1,2.1662848E1,4.656267E1],"tree_param":{"num_deleted":"0","num_feature":"12","num_nodes":"7","size_leaf_vector":"1"}},{"base_weights":[6.37E-2,-1.1824833E0,1.4386402E0,-4.340483E-3,-8.8068354E-4,1.5723439E-3,3.7569515E-3],"categories":[],"categories_nodes":[],"categories_segments":[],"categories_sizes":[],"default_left":[0,0,0,0,0,0,0],"id":30,"left_children":[1,3,5,-1,-1,-1,-1],"loss_changes":[2.4318509E2,3.806855E1,6.7487183E0,0E0,0E0,0E0,0E0],"parents":[2147483647,0,0,1,1,2,2],"right_children":[2,4,6,-1,-1,-1,-1],"split_conditions":[3.7498313E-1,1.8749157E-1,4.6872893E-1,-4.340483E-3,-8.8068354E-4,1.5723439E-3,3.7569515E-3],"split_indices":[2,2,2,0,0,0,0],"split_type":[0,0,0,0,0,0,0],"sum_hessian":[1.41929E2,7.445047E1,6.747852E1,4.2080704E1,3.236977E1,9.461933E0,5.801659E1],"tree_param":{"num_deleted":"0","num_feature":"12","num_nodes":"7","size_leaf_vector":"1"}},{"base_weights":[-8.319015E-2,-1.3718519E0,1.1050565E0,-4.3020714E-3,-1.4290074E-3,2.3279855E-1,1.4940916E0,-2.9060156E-3,1.0592514E-3,3.8302592E-3,1.0653579E-3],"categories":[],"categories_nodes":[],"categories_segments":[],"categories_sizes":[],"default_left":[0,0,0,0,0,0,0,0,0,0,0],"id":31,"left_children":[1,3,5,-1,-1,7,9,-1,-1,-1,-1],"loss_changes":[2.2571664E2,2.3147049E1,2.6024399E1,0E0,0E0,7.134894E0,5.7258453E0,0E0,0E0,0E0,0E0],"parents":[2147483647,0,0,1,1,2,2,5,5,6,6],"right_children":[2,4,6,-1,-1,8,10,-1,-1,-1,-1],"split_conditions":[3.2811025E-1,1.8749157E-1,4.6872893E-1,-4.3020714E-3,-1.4290074E-3,2.5100005E-1,1E0,-2.9060156E-3,1.0592514E-3,3.8302592E-3,1.0653579E-3],"split_indices":[2,2,2,0,0,1,9,0,0,0,0],"split_type":[0,0,0,0,0,0,0,0,0,0,0],"sum_hessian":[1.4740695E2,7.07155E1,7.669146E1,4.5815678E1,2.4899824E1,2.3654833E1,5.3036625E1,2.987979E0,2.0666853E1,4.830566E1,4.7309666E0],"tree_param":{"num_deleted":"0","num_feature":"12","num_nodes":"11","size_leaf_vector":"1"}},{"base_weights":[5.6000736E-2,-1.4859086E0,1.1340119E0,-4.29977E-3,-1.4041484E-3,1.555539E-3,3.97449E-3],"categories":[],"categories_nodes":[],"categories_segments":[],"categories_sizes":[],"default_left":[0,0,0,0,0,0,0],"id":32,"left_children":[1,3,5,-1,-1,-1,-1],"loss_changes":[2.4543309E2,1.6782715E1,2.2065918E1,0E0,0E0,0E0,0E0],"parents":[2147483647,0,0,1,1,2,2],"right_children":[2,4,6,-1,-1,-1,-1],"split_conditions":[2.8123736E-1,1.8749157E-1,5.624747E-1,-4.29977E-3,-1.4041484E-3,1.555539E-3,3.97449E-3],"split_indices":[2,2,2,0,0,0,0],"split_type":[0,0,0,0,0,0,0],"sum_hessian":[1.4765596E2,6.075557E1,8.690038E1,4.531768E1,1.5437891E1,4.506868E1,4.1831703E1],"tree_param":{"num_deleted":"0","num_feature":"12","num_nodes":"7","size_leaf_vector":"1"}},{"base_weights":[-7.2159775E-2,-1.4149029E0,1.0146462E0,-4.2375624E-3,-1.2222563E-3,3.516427E-4,3.261644E-3],"categories":[],"categories_nodes":[],"categories_segments":[],"categories_sizes":[],"default_left":[0,0,0,0,0,0,0],"id":33,"left_children":[1,3,5,-1,-1,-1,-1],"loss_changes":[2.3800307E2,2.3237915E1,2.7009743E1,0E0,0E0,0E0,0E0],"parents":[2147483647,0,0,1,1,2,2],"right_children":[2,4,6,-1,-1,-1,-1],"split_conditions":[2.8123736E-1,1.8749157E-1,4.2185605E-1,-4.2375624E-3,-1.2222563E-3,3.516427E-4,3.261644E-3],"split_indices":[2,2,2,0,0,0,0],"split_type":[0,0,0,0,0,0,0],"sum_hessian":[1.6309384E2,7.295648E1,9.013736E1,5.2538628E1,2.0417856E1,2.5646818E1,6.449055E1],"tree_param":{"num_deleted":"0","num_feature":"12","num_nodes":"7","size_leaf_vector":"1"}},{"base_weights":[2.4407681E-2,-1.4844958E0,1.077026E0,-4.2779576E-3,-1.8199822E-3,9.7470684E-4,3.9105723E-3],"categories":[],"categories_nodes":[],"categories_segments":[],"categories_sizes":[],"default_left":[0,0,0,0,0,0,0],"id":34,"left_children":[1,3,5,-1,-1,-1,-1],"loss_changes":[2.2423932E2,1.2592072E1,3.0864517E1,0E0,0E0,0E0,0E0],"parents":[2147483647,0,0,1,1,2,2],"right_children":[2,4,6,-1,-1,-1,-1],"split_conditions":[2.8123736E-1,1.8749157E-1,5.624747E-1,-4.2779576E-3,-1.8199822E-3,9.7470684E-4,3.9105723E-3],"split_indices":[2,2,2,0,0,0,0],"split_type":[0,0,0,0,0,0,0],"sum_hessian":[1.41182E2,5.801659E1,8.316541E1,4.108471E1,1.693188E1,3.7598736E1,4.5566677E1],"tree_param":{"num_deleted":"0","num_feature":"12","num_nodes":"7","size_leaf_vector":"1"}},{"base_weights":[3.5516895E-2],"categories":[],"categories_nodes":[],"categories_segments":[],"categories_sizes":[],"default_left":[0],"id":35,"left_children":[-1],"loss_changes":[0E0],"parents":[2147483647],"right_children":[-1],"split_conditions":[8.5188374E-5],"split_indices":[0],"split_type":[0],"sum_hessian":[1.41929E2],"tree_param":{"num_deleted":"0","num_feature":"12","num_nodes":"1","size_leaf_vector":"1"}},{"base_weights":[2.989439E-2],"categories":[],"categories_nodes":[],"categories_segments":[],"categories_sizes":[],"default_left":[0],"id":36,"left_children":[-1],"loss_changes":[0E0],"parents":[2147483647],"right_children":[-1],"split_conditions":[7.170262E-5],"split_indices":[0],"split_type":[0],"sum_hessian":[1.4914995E2],"tree_param":{"num_deleted":"0","num_feature":"12","num_nodes":"1","size_leaf_vector":"1"}},{"base_weights":[3.698424E-2,-4.100604E-3,1.1021171E0,3.730641E-5,3.8260866E-3],"categories":[],"categories_nodes":[],"categories_segments":[],"categories_sizes":[],"default_left":[0,0,0,0,0],"id":37,"left_children":[1,-1,3,-1,-1],"loss_changes":[2.5801956E2,0E0,4.6156097E1,0E0,0E0],"parents":[2147483647,0,0,2,2],"right_children":[2,-1,4,-1,-1],"split_conditions":[2.3436446E-1,-4.100604E-3,4.2185605E-1,3.730641E-5,3.8260866E-3],"split_indices":[2,0,2,0,0],"split_type":[0,0,0,0,0],"sum_hessian":[1.3869202E2,5.2538628E1,8.615339E1,2.689181E1,5.926158E1],"tree_param":{"num_deleted":"0","num_feature":"12","num_nodes":"5","size_leaf_vector":"1"}},{"base_weights":[6.522015E-2,-1.2159318E0,3.5855914E-3,-4.2056777E-3,-8.688528E-4],"categories":[],"categories_nodes":[],"categories_segments":[],"categories_sizes":[],"default_left":[0,0,0,0,0],"id":38,"left_children":[1,3,-1,-1,-1],"loss_changes":[2.663496E2,3.5190903E1,0E0,0E0,0E0],"parents":[2147483647,0,0,1,1],"right_children":[2,4,-1,-1,-1],"split_conditions":[3.7498313E-1,1.8749157E-1,3.5855914E-3,-4.2056777E-3,-8.688528E-4],"split_indices":[2,2,0,0,0],"split_type":[0,0,0,0,0],"sum_hessian":[1.4541498E2,7.669146E1,6.872351E1,4.706067E1,2.963079E1],"tree_param":{"num_deleted":"0","num_feature":"12","num_nodes":"5","size_leaf_vector":"1"}},{"base_weights":[6.87585E-2],"categories":[],"categories_nodes":[],"categories_segments":[],"categories_sizes":[],"default_left":[0],"id":39,"left_children":[-1],"loss_changes":[0E0],"parents":[2147483647],"right_children":[-1],"split_conditions":[1.649194E-4],"split_indices":[0],"split_type":[0],"sum_hessian":[1.4566397E2],"tree_param":{"num_deleted":"0","num_feature":"12","num_nodes":"1","size_leaf_vector":"1"}},{"base_weights":[-6.2326334E-2,-1.6539375E0,9.7470087E-1,-4.364787E-3,-1.5924706E-3,4.9253233E-4,3.7658848E-3],"categories":[],"categories_nodes":[],"categories_segments":[],"categories_sizes":[],"default_left":[0,0,0,0,0,0,0],"id":40,"left_children":[1,3,5,-1,-1,-1,-1],"loss_changes":[2.3960287E2,9.402481E0,4.0261528E1,0E0,0E0,0E0,0E0],"parents":[2147483647,0,0,1,1,2,2],"right_children":[2,4,6,-1,-1,-1,-1],"split_conditions":[2.3436446E-1,1.8749157E-1,5.156018E-1,-4.364787E-3,-1.5924706E-3,4.9253233E-4,3.7658848E-3],"split_indices":[2,2,2,0,0,0,0],"split_type":[0,0,0,0,0,0,0],"sum_hessian":[1.4516597E2,5.7269596E1,8.789638E1,4.9052654E1,8.216942E0,3.834573E1,4.955065E1],"tree_param":{"num_deleted":"0","num_feature":"12","num_nodes":"7","size_leaf_vector":"1"}},{"base_weights":[4.478567E-2],"categories":[],"categories_nodes":[],"categories_segments":[],"categories_sizes":[],"default_left":[0],"id":41,"left_children":[-1],"loss_changes":[0E0],"parents":[2147483647],"right_children":[-1],"split_conditions":[1.07419815E-4],"split_indices":[0],"split_type":[0],"sum_hessian":[1.3968802E2],"tree_param":{"num_deleted":"0","num_feature":"12","num_nodes":"1","size_leaf_vector":"1"}},{"base_weights":[-2.5068965E-2,-3.026984E-3,1.425487E0,5.778974E-1,3.917152E-3,1.9850063E-3,-2.9060058E-3],"categories":[],"categories_nodes":[],"categories_segments":[],"categories_sizes":[],"default_left":[0,0,0,0,0,0,0],"id":42,"left_children":[1,-1,3,5,-1,-1,-1],"loss_changes":[2.4170139E2,0E0,1.0912704E1,5.4516635E0,0E0,0E0,0E0],"parents":[2147483647,0,0,2,2,3,3],"right_children":[2,-1,4,6,-1,-1,-1],"split_conditions":[3.7498313E-1,-3.026984E-3,4.6872893E-1,1E0,3.917152E-3,1.9850063E-3,-2.9060058E-3],"split_indices":[2,0,2,6,0,0,0],"split_type":[0,0,0,0,0,0,0],"sum_hessian":[1.3470805E2,7.270749E1,6.200056E1,1.2200913E1,4.979965E1,1.0706924E1,1.4939895E0],"tree_param":{"num_deleted":"0","num_feature":"12","num_nodes":"7","size_leaf_vector":"1"}},{"base_weights":[7.30492E-2,-1.5140795E0,1.131135E0,-4.511478E-3,-2.4316856E-3,1.0062935E-3,3.5541968E-3],"categories":[],"categories_nodes":[],"categories_segments":[],"categories_sizes":[],"default_left":[0,0,0,0,0,0,0],"id":43,"left_children":[1,3,5,-1,-1,-1,-1],"loss_changes":[2.1743661E2,9.504852E0,1.938655E1,0E0,0E0,0E0,0E0],"parents":[2147483647,0,0,1,1,2,2],"right_children":[2,4,6,-1,-1,-1,-1],"split_conditions":[2.8123736E-1,1.4061868E-1,4.6872893E-1,-4.511478E-3,-2.4316856E-3,1.0062935E-3,3.5541968E-3],"split_indices":[2,2,2,0,0,0,0],"split_type":[0,0,0,0,0,0,0],"sum_hessian":[1.2947908E2,5.1791634E1,7.7687454E1,2.987979E1,2.1911844E1,2.5646818E1,5.204063E1],"tree_param":{"num_deleted":"0","num_feature":"12","num_nodes":"7","size_leaf_vector":"1"}},{"base_weights":[-1.185315E-2,-1.5422275E0,1.1463938E0,-4.35182E-3,-1.9616398E-3,9.0692687E-4,3.923143E-3],"categories":[],"categories_nodes":[],"categories_segments":[],"categories_sizes":[],"default_left":[0,0,0,0,0,0,0],"id":44,"left_children":[1,3,5,-1,-1,-1,-1],"loss_changes":[2.5510735E2,1.2222351E1,3.079219E1,0E0,0E0,0E0,0E0],"parents":[2147483647,0,0,1,1,2,2],"right_children":[2,4,6,-1,-1,-1,-1],"split_conditions":[2.8123736E-1,1.8749157E-1,5.156018E-1,-4.35182E-3,-1.9616398E-3,9.0692687E-4,3.923143E-3],"split_indices":[2,2,2,0,0,0,0],"split_type":[0,0,0,0,0,0,0],"sum_hessian":[1.4392099E2,6.200056E1,8.192042E1,4.506868E1,1.693188E1,3.1871775E1,5.0048645E1],"tree_param":{"num_deleted":"0","num_feature":"12","num_nodes":"7","size_leaf_vector":"1"}},{"base_weights":[2.0652497E-2],"categories":[],"categories_nodes":[],"categories_segments":[],"categories_sizes":[],"default_left":[0],"id":45,"left_children":[-1],"loss_changes":[0E0],"parents":[2147483647],"right_children":[-1],"split_conditions":[4.9535654E-5],"split_indices":[0],"split_type":[0],"sum_hessian":[1.3620204E2],"tree_param":{"num_deleted":"0","num_feature":"12","num_nodes":"1","size_leaf_vector":"1"}},{"base_weights":[7.3145475E-4,-1.4809248E0,1.1592852E0,-4.4090026E-3,-9.947703E-4,7.9634716E-4,3.6525764E-3],"categories":[],"categories_nodes":[],"categories_segments":[],"categories_sizes":[],"default_left":[0,0,0,0,0,0,0],"id":46,"left_children":[1,3,5,-1,-1,-1,-1],"loss_changes":[2.4448714E2,2.3807648E1,2.4039055E1,0E0,0E0,0E0,0E0],"parents":[2147483647,0,0,1,1,2,2],"right_children":[2,4,6,-1,-1,-1,-1],"split_conditions":[2.8123736E-1,1.8749157E-1,4.6872893E-1,-4.4090026E-3,-9.947703E-4,7.9634716E-4,3.6525764E-3],"split_indices":[2,2,2,0,0,0,0],"split_type":[0,0,0,0,0,0,0],"sum_hessian":[1.4242699E2,6.2498558E1,7.992844E1,4.681167E1,1.5686889E1,2.4401827E1,5.5526608E1],"tree_param":{"num_deleted":"0","num_feature":"12","num_nodes":"7","size_leaf_vector":"1"}},{"base_weights":[5.3260896E-2,-1.5112519E0,2.8291193E-3,-4.2887563E-3,-1.8843719E-3],"categories":[],"categories_nodes":[],"categories_segments":[],"categories_sizes":[],"default_left":[0,0,0,0,0],"id":47,"left_children":[1,3,-1,-1,-1],"loss_changes":[2.5052467E2,1.1953781E1,0E0,0E0,0E0],"parents":[2147483647,0,0,1,1],"right_children":[2,4,-1,-1,-1],"split_conditions":[2.8123736E-1,1.8749157E-1,2.8291193E-3,-4.2887563E-3,-1.8843719E-3],"split_indices":[2,2,0,0,0],"split_type":[0,0,0,0,0],"sum_hessian":[1.42178E2,5.951058E1,8.266741E1,4.3076694E1,1.6433884E1],"tree_param":{"num_deleted":"0","num_feature":"12","num_nodes":"5","size_leaf_vector":"1"}},{"base_weights":[2.0148407E-1,-3.5877926E-3,1.269621E0,1.2404339E-3,4.2455406E-3],"categories":[],"categories_nodes":[],"categories_segments":[],"categories_sizes":[],"default_left":[0,0,0,0,0],"id":48,"left_children":[1,-1,3,-1,-1],"loss_changes":[2.5595778E2,0E0,3.2629257E1,0E0,0E0],"parents":[2147483647,0,0,2,2],"right_children":[2,-1,4,-1,-1],"split_conditions":[2.8123736E-1,-3.5877926E-3,5.156018E-1,1.2404339E-3,4.2455406E-3],"split_indices":[2,0,2,0,0],"split_type":[0,0,0,0,0],"sum_hessian":[1.41182E2,5.4530613E1,8.665139E1,3.4610756E1,5.204063E1],"tree_param":{"num_deleted":"0","num_feature":"12","num_nodes":"5","size_leaf_vector":"1"}},{"base_weights":[5.4532003E-2,-4.1857343E-3,1.0505984E0,7.5770204E-4,3.3221352E-3],"categories":[],"categories_nodes":[],"categories_segments":[],"categories_sizes":[],"default_left":[0,0,0,0,0],"id":49,"left_children":[1,-1,3,-1,-1],"loss_changes":[2.5932852E2,0E0,2.2884186E1,0E0,0E0],"parents":[2147483647,0,0,2,2],"right_children":[2,-1,4,-1,-1],"split_conditions":[2.3436446E-1,-4.1857343E-3,4.2185605E-1,7.5770204E-4,3.3221352E-3],"split_indices":[2,0,2,0,0],"split_type":[0,0,0,0,0],"sum_hessian":[1.4466798E2,5.1542637E1,9.312534E1,2.9132793E1,6.3992546E1],"tree_param":{"num_deleted":"0","num_feature":"12","num_nodes":"5","size_leaf_vector":"1"}},{"base_weights":[-1.417916E-1,-1.5996513E0,1.0364158E0,-4.4106124E-3,-2.1762725E-3,1.0104635E-3,3.924631E-3],"categories":[],"categories_nodes":[],"categories_segments":[],"categories_sizes":[],"default_left":[0,0,0,0,0,0,0],"id":50,"left_children":[1,3,5,-1,-1,-1,-1],"loss_changes":[2.4592444E2,1.0598572E1,2.921682E1,0E0,0E0,0E0,0E0],"parents":[2147483647,0,0,1,1,2,2],"right_children":[2,4,6,-1,-1,-1,-1],"split_conditions":[2.8123736E-1,1.8749157E-1,5.624747E-1,-4.4106124E-3,-2.1762725E-3,1.0104635E-3,3.924631E-3],"split_indices":[2,2,2,0,0,0,0],"split_type":[0,0,0,0,0,0,0],"sum_hessian":[1.4317398E2,6.3992546E1,7.918144E1,4.7558662E1,1.6433884E1,3.9092724E1,4.008872E1],"tree_param":{"num_deleted":"0","num_feature":"12","num_nodes":"7","size_leaf_vector":"1"}},{"base_weights":[3.4279798E-3,-4.0865056E-3,1.0041896E0,1.2649824E-4,3.1008965E-3],"categories":[],"categories_nodes":[],"categories_segments":[],"categories_sizes":[],"default_left":[0,0,0,0,0],"id":51,"left_children":[1,-1,3,-1,-1],"loss_changes":[2.3482576E2,0E0,2.3796936E1,0E0,0E0],"parents":[2147483647,0,0,2,2],"right_children":[2,-1,4,-1,-1],"split_conditions":[2.3436446E-1,-4.0865056E-3,3.7498313E-1,1.2649824E-4,3.1008965E-3],"split_indices":[2,0,2,0,0],"split_type":[0,0,0,0,0],"sum_hessian":[1.3744702E2,5.079564E1,8.665139E1,2.0168858E1,6.648253E1],"tree_param":{"num_deleted":"0","num_feature":"12","num_nodes":"5","size_leaf_vector":"1"}},{"base_weights":[6.95336E-2,-1.5940703E0,1.1852441E0,-4.452017E-3,-2.1809805E-3,4.7713825E-1,3.6656312E-3,4.8326555E-4,3.057084E-3],"categories":[],"categories_nodes":[],"categories_segments":[],"categories_sizes":[],"default_left":[0,0,0,0,0,0,0,0,0],"id":52,"left_children":[1,3,5,-1,-1,7,-1,-1,-1],"loss_changes":[2.578885E2,1.0009476E1,2.020147E1,0E0,0E0,5.9659333E0,0E0,0E0,0E0],"parents":[2147483647,0,0,1,1,2,2,5,5],"right_children":[2,4,6,-1,-1,8,-1,-1,-1],"split_conditions":[2.8123736E-1,1.8749157E-1,4.6872893E-1,-4.452017E-3,-2.1809805E-3,7.2021645E-1,3.6656312E-3,4.8326555E-4,3.057084E-3],"split_indices":[2,2,2,0,0,0,0,0,0],"split_type":[0,0,0,0,0,0,0,0,0],"sum_hessian":[1.3894102E2,5.5775604E1,8.316541E1,4.0337715E1,1.5437891E1,2.7140808E1,5.6024605E1,2.0168858E1,6.9719505E0],"tree_param":{"num_deleted":"0","num_feature":"12","num_nodes":"9","size_leaf_vector":"1"}},{"base_weights":[-7.849001E-2,-3.622851E-3,2.7665775E-3],"categories":[],"categories_nodes":[],"categories_segments":[],"categories_sizes":[],"default_left":[0,0,0],"id":53,"left_children":[1,-1,-1],"loss_changes":[2.57402E2,0E0,0E0],"parents":[2147483647,0,0],"right_children":[2,-1,-1],"split_conditions":[2.8123736E-1,-3.622851E-3,2.7665775E-3],"split_indices":[2,0,0],"split_type":[0,0,0],"sum_hessian":[1.4591296E2,6.747852E1,7.843445E1],"tree_param":{"num_deleted":"0","num_feature":"12","num_nodes":"3","size_leaf_vector":"1"}},{"base_weights":[8.869719E-2,-1.6481171E0,2.5560071E-3,-4.5114784E-3,-2.5522797E-3],"categories":[],"categories_nodes":[],"categories_segments":[],"categories_sizes":[],"default_left":[0,0,0,0,0],"id":54,"left_children":[1,3,-1,-1,-1],"loss_changes":[2.429369E2,7.0081635E0,0E0,0E0,0E0],"parents":[2147483647,0,0,1,1],"right_children":[2,4,-1,-1,-1],"split_conditions":[2.3436446E-1,1.4061868E-1,2.5560071E-3,-4.5114784E-3,-2.5522797E-3],"split_indices":[2,2,0,0,0],"split_type":[0,0,0,0,0],"sum_hessian":[1.4317398E2,5.1542637E1,9.1631355E1,3.6851738E1,1.4690896E1],"tree_param":{"num_deleted":"0","num_feature":"12","num_nodes":"5","size_leaf_vector":"1"}},{"base_weights":[7.454533E-2,-1.6492363E0,2.5349231E-3,-4.5114784E-3,-2.5849328E-3],"categories":[],"categories_nodes":[],"categories_segments":[],"categories_sizes":[],"default_left":[0,0,0,0,0],"id":55,"left_children":[1,3,-1,-1,-1],"loss_changes":[2.4159392E2,6.8582306E0,0E0,0E0,0E0],"parents":[2147483647,0,0,1,1],"right_children":[2,4,-1,-1,-1],"split_conditions":[2.3436446E-1,1.4061868E-1,2.5349231E-3,-4.5114784E-3,-2.5849328E-3],"split_indices":[2,2,0,0,0],"split_type":[0,0,0,0,0],"sum_hessian":[1.42676E2,5.1791634E1,9.088436E1,3.6851738E1,1.4939895E1],"tree_param":{"num_deleted":"0","num_feature":"12","num_nodes":"5","size_leaf_vector":"1"}},{"base_weights":[2.7066978E-2,-1.482787E0,1.0885401E0,-4.349129E-3,-9.4380346E-4,2.0013179E-1,3.6763344E-3,1.8497512E-3,-3.3086324E-1,-3.0665647E-3,1.8138331E-1,-8.5768674E-4,5.1212176E-3],"categories":[],"categories_nodes":[],"categories_segments":[],"categories_sizes":[],"default_left":[0,0,0,0,0,0,0,0,0,0,0,0,0],"id":56,"left_children":[1,3,5,-1,-1,7,-1,-1,9,-1,11,-1,-1],"loss_changes":[2.2427278E2,2.0794502E1,3.2426895E1,0E0,0E0,8.305562E0,0E0,0E0,6.889707E0,0E0,9.701456E0,0E0,0E0],"parents":[2147483647,0,0,1,1,2,2,5,5,8,8,10,10],"right_children":[2,4,6,-1,-1,8,-1,-1,10,-1,12,-1,-1],"split_conditions":[2.8123736E-1,1.8749157E-1,4.6872893E-1,-4.349129E-3,-9.4380346E-4,4.270111E-1,3.6763344E-3,1.8497512E-3,5.495081E-1,-3.0665647E-3,7.2021645E-1,-8.5768674E-4,5.1212176E-3],"split_indices":[2,2,2,0,0,1,0,0,1,0,0,0,0],"split_type":[0,0,0,0,0,0,0,0,0,0,0,0,0],"sum_hessian":[1.3993701E2,5.7767593E1,8.216942E1,4.4321686E1,1.3445905E1,2.7389807E1,5.4779613E1,1.3196907E1,1.41929E1,4.9799647E0,9.2129345E0,7.220949E0,1.9919859E0],"tree_param":{"num_deleted":"0","num_feature":"12","num_nodes":"13","size_leaf_vector":"1"}},{"base_weights":[3.9500892E-2,-4.140989E-3,1.0458618E0,3.7085952E-4,3.9336467E-3],"categories":[],"categories_nodes":[],"categories_segments":[],"categories_sizes":[],"default_left":[0,0,0,0,0],"id":57,"left_children":[1,-1,3,-1,-1],"loss_changes":[2.5356422E2,0E0,4.8127075E1,0E0,0E0],"parents":[2147483647,0,0,2,2],"right_children":[2,-1,4,-1,-1],"split_conditions":[2.3436446E-1,-4.140989E-3,4.6872893E-1,3.7085952E-4,3.9336467E-3],"split_indices":[2,0,2,0,0],"split_type":[0,0,0,0,0],"sum_hessian":[1.42676E2,5.1791634E1,9.088436E1,3.6353745E1,5.4530613E1],"tree_param":{"num_deleted":"0","num_feature":"12","num_nodes":"5","size_leaf_vector":"1"}},{"base_weights":[-6.082682E-4],"categories":[],"categories_nodes":[],"categories_segments":[],"categories_sizes":[],"default_left":[0],"id":58,"left_children":[-1],"loss_changes":[0E0],"parents":[2147483647],"right_children":[-1],"split_conditions":[-1.4589501E-6],"split_indices":[0],"split_type":[0],"sum_hessian":[1.40933E2],"tree_param":{"num_deleted":"0","num_feature":"12","num_nodes":"1","size_leaf_vector":"1"}},{"base_weights":[-8.278831E-2,-4.102542E-3,8.704219E-1,3.259284E-1,3.7365386E-3,-3.831694E-4,1.7367727E-3],"categories":[],"categories_nodes":[],"categories_segments":[],"categories_sizes":[],"default_left":[0,0,0,0,0,0,0],"id":59,"left_children":[1,-1,3,5,-1,-1,-1],"loss_changes":[2.2174724E2,0E0,3.3738167E1,9.7267275E0,0E0,0E0,0E0],"parents":[2147483647,0,0,2,2,3,3],"right_children":[2,-1,4,6,-1,-1,-1],"split_conditions":[2.3436446E-1,-4.102542E-3,5.624747E-1,3.7498313E-1,3.7365386E-3,-3.831694E-4,1.7367727E-3],"split_indices":[2,0,2,2,0,0,0],"split_type":[0,0,0,0,0,0,0],"sum_hessian":[1.4292499E2,5.278763E1,9.013736E1,5.0297646E1,3.9839718E1,2.265884E1,2.7638805E1],"tree_param":{"num_deleted":"0","num_feature":"12","num_nodes":"7","size_leaf_vector":"1"}},{"base_weights":[-1.8883935E-1,-1.3090222E0,2.8635734E-3,-4.5114784E-3,-1.5626862E-3],"categories":[],"categories_nodes":[],"categories_segments":[],"categories_sizes":[],"default_left":[0,0,0,0,0],"id":60,"left_children":[1,3,-1,-1,-1],"loss_changes":[2.20606E2,2.9587677E1,0E0,0E0,0E0],"parents":[2147483647,0,0,1,1],"right_children":[2,4,-1,-1,-1],"split_conditions":[3.7498313E-1,1.4061868E-1,2.8635734E-3,-4.5114784E-3,-1.5626862E-3],"split_indices":[2,2,0,0,0],"split_type":[0,0,0,0,0],"sum_hessian":[1.4242699E2,7.868344E1,6.374355E1,4.2080704E1,3.660274E1],"tree_param":{"num_deleted":"0","num_feature":"12","num_nodes":"5","size_leaf_vector":"1"}},{"base_weights":[-1.213061E-1,-1.5014608E0,9.474723E-1,-4.5114784E-3,-2.2885425E-3,4.0592448E-4,3.7153857E-3],"categories":[],"categories_nodes":[],"categories_segments":[],"categories_sizes":[],"default_left":[0,0,0,0,0,0,0],"id":61,"left_children":[1,3,5,-1,-1,-1,-1],"loss_changes":[2.137641E2,1.313559E1,3.823439E1,0E0,0E0,0E0,0E0],"parents":[2147483647,0,0,1,1,2,2],"right_children":[2,4,6,-1,-1,-1,-1],"split_conditions":[2.8123736E-1,1.4061868E-1,5.624747E-1,-4.5114784E-3,-2.2885425E-3,4.0592448E-4,3.7153857E-3],"split_indices":[2,2,2,0,0,0,0],"split_type":[0,0,0,0,0,0,0],"sum_hessian":[1.4491698E2,6.3245552E1,8.1671425E1,3.7349735E1,2.5895817E1,3.5606747E1,4.6064674E1],"tree_param":{"num_deleted":"0","num_feature":"12","num_nodes":"7","size_leaf_vector":"1"}},{"base_weights":[-6.0796924E-2,-6.452131E-1,1.8342815E-2,-3.8234238E-3,2.6083547E-3,-3.5729057E-3,1.0501086E0,2.4391532E-4,3.3910933E-3],"categories":[],"categories_nodes":[],"categories_segments":[],"categories_sizes":[],"default_left":[0,0,0,0,0,0,0,0,0],"id":62,"left_children":[1,3,5,-1,-1,-1,7,-1,-1],"loss_changes":[6.276386E0,2.6609219E1,1.8595593E2,0E0,0E0,0E0,2.4479225E1,0E0,0E0],"parents":[2147483647,0,0,1,1,2,2,6,6],"right_children":[2,4,6,-1,-1,-1,8,-1,-1],"split_conditions":[2.021749E-1,3.7498313E-1,2.8123736E-1,-3.8234238E-3,2.6083547E-3,-3.5729057E-3,4.2185605E-1,2.4391532E-4,3.3910933E-3],"split_indices":[1,2,2,0,0,0,2,0,0],"split_type":[0,0,0,0,0,0,0,0,0],"sum_hessian":[1.3570404E2,1.6184885E1,1.1951916E2,1.0457926E1,5.7269597E0,4.8554657E1,7.09645E1,1.967086E1,5.1293636E1],"tree_param":{"num_deleted":"0","num_feature":"12","num_nodes":"9","size_leaf_vector":"1"}},{"base_weights":[-6.0907323E-2,-3.7087516E-3,1.1516253E0,2.7202243E-1,3.8010217E-3,5.121209E-3,3.5780895E-4],"categories":[],"categories_nodes":[],"categories_segments":[],"categories_sizes":[],"default_left":[0,0,0,0,0,0,0],"id":63,"left_children":[1,-1,3,5,-1,-1,-1],"loss_changes":[2.3947519E2,0E0,2.7888306E1,5.5279403E0,0E0,0E0,0E0],"parents":[2147483647,0,0,2,2,3,3],"right_children":[2,-1,4,6,-1,-1,-1],"split_conditions":[2.8123736E-1,-3.7087516E-3,4.6872893E-1,7.95321E-2,3.8010217E-3,5.121209E-3,3.5780895E-4],"split_indices":[2,0,2,1,0,0,0],"split_type":[0,0,0,0,0,0,0],"sum_hessian":[1.3296506E2,5.975958E1,7.320548E1,2.415283E1,4.9052654E1,1.4939895E0,2.265884E1],"tree_param":{"num_deleted":"0","num_feature":"12","num_nodes":"7","size_leaf_vector":"1"}},{"base_weights":[4.649699E-2,-7.179825E-2,1.0817142E-3,-3.8157818E-3,1.048838E0,5.1428884E-4,3.7270323E-3],"categories":[],"categories_nodes":[],"categories_segments":[],"categories_sizes":[],"default_left":[0,0,0,0,0,0,0],"id":64,"left_children":[1,3,-1,-1,5,-1,-1],"loss_changes":[6.529133E0,1.7972514E2,0E0,0E0,2.5603493E1,0E0,0E0],"parents":[2147483647,0,0,1,1,4,4],"right_children":[2,4,-1,-1,6,-1,-1],"split_conditions":[7.16782E-1,2.8123736E-1,1.0817142E-3,-3.8157818E-3,5.156018E-1,5.1428884E-4,3.7270323E-3],"split_indices":[1,2,0,0,2,0,0],"split_type":[0,0,0,0,0,0,0],"sum_hessian":[1.3645103E2,1.0557526E2,3.0875782E1,4.4819683E1,6.075557E1,2.2907839E1,3.7847733E1],"tree_param":{"num_deleted":"0","num_feature":"12","num_nodes":"7","size_leaf_vector":"1"}},{"base_weights":[-2.905395E-3,-1.5761414E0,1.058555E0,-4.511478E-3,-2.650611E-3,5.8819726E-4,3.892579E-3],"categories":[],"categories_nodes":[],"categories_segments":[],"categories_sizes":[],"default_left":[0,0,0,0,0,0,0],"id":65,"left_children":[1,3,5,-1,-1,-1,-1],"loss_changes":[2.3118985E2,8.007721E0,3.7943985E1,0E0,0E0,0E0,0E0],"parents":[2147483647,0,0,1,1,2,2],"right_children":[2,4,6,-1,-1,-1,-1],"split_conditions":[2.8123736E-1,1.4061868E-1,5.156018E-1,-4.511478E-3,-2.650611E-3,5.8819726E-4,3.892579E-3],"split_indices":[2,2,2,0,0,0,0],"split_type":[0,0,0,0,0,0,0],"sum_hessian":[1.3844302E2,5.5775604E1,8.266741E1,3.386376E1,2.1911844E1,3.386376E1,4.8803654E1],"tree_param":{"num_deleted":"0","num_feature":"12","num_nodes":"7","size_leaf_vector":"1"}},{"base_weights":[-3.7596866E-2,-3.7705E-3,1.1249753E0,5.258159E-4,3.7895297E-3],"categories":[],"categories_nodes":[],"categories_segments":[],"categories_sizes":[],"default_left":[0,0,0,0,0],"id":66,"left_children":[1,-1,3,-1,-1],"loss_changes":[2.5451389E2,0E0,3.3450195E1,0E0,0E0],"parents":[2147483647,0,0,2,2],"right_children":[2,-1,4,-1,-1],"split_conditions":[2.8123736E-1,-3.7705E-3,4.6872893E-1,5.258159E-4,3.7895297E-3],"split_indices":[2,0,2,0,0],"split_type":[0,0,0,0,0],"sum_hessian":[1.42676E2,6.1502563E1,8.117342E1,2.7140808E1,5.403262E1],"tree_param":{"num_deleted":"0","num_feature":"12","num_nodes":"5","size_leaf_vector":"1"}},{"base_weights":[-7.5867414E-2,-1.5629934E0,2.5443363E-3,-4.4020154E-3,-1.9527861E-3],"categories":[],"categories_nodes":[],"categories_segments":[],"categories_sizes":[],"default_left":[0,0,0,0,0],"id":67,"left_children":[1,3,-1,-1,-1],"loss_changes":[2.3317567E2,1.2185547E1,0E0,0E0,0E0],"parents":[2147483647,0,0,1,1],"right_children":[2,4,-1,-1,-1],"split_conditions":[2.8123736E-1,1.8749157E-1,2.5443363E-3,-4.4020154E-3,-1.9527861E-3],"split_indices":[2,2,0,0,0],"split_type":[0,0,0,0,0],"sum_hessian":[1.3794502E2,5.975958E1,7.818545E1,4.382369E1,1.5935887E1],"tree_param":{"num_deleted":"0","num_feature":"12","num_nodes":"5","size_leaf_vector":"1"}},{"base_weights":[-9.207615E-2,-1.6979757E-1,6.477161E-1,-1.5610683E0,9.219635E-1,-1.8843662E-3,1.0143874E0,-4.511478E-3,-2.6669141E-3,2.877556E-1,3.8648E-3,-4.511459E-3,4.271292E-3,1.5621407E-1,4.318502E-3,-1.1032147E-4,2.9319827E-3],"categories":[],"categories_nodes":[],"categories_segments":[],"categories_sizes":[],"default_left":[0,0,0,0,0,0,0,0,0,0,0,0,0,0,0,0,0],"id":68,"left_children":[1,3,5,7,9,-1,11,-1,-1,13,-1,-1,-1,15,-1,-1,-1],"loss_changes":[8.131959E0,1.944011E2,7.0667515E0,8.085098E0,3.135191E1,0E0,2.3758621E1,0E0,0E0,7.432068E0,0E0,0E0,0E0,7.4082084E0,0E0,0E0,0E0],"parents":[2147483647,0,0,1,1,2,2,3,3,4,4,6,6,9,9,13,13],"right_children":[2,4,6,8,10,-1,12,-1,-1,14,-1,-1,-1,16,-1,-1,-1],"split_conditions":[1E0,2.8123736E-1,3.3345458E-1,1.4061868E-1,5.624747E-1,-1.8843662E-3,1.8749157E-1,-4.511478E-3,-2.6669141E-3,1E0,3.8648E-3,-4.511459E-3,4.271292E-3,1E0,4.318502E-3,-1.1032147E-4,2.9319827E-3],"split_indices":[4,2,1,2,2,0,2,0,0,3,0,0,0,7,0,0,0],"split_type":[0,0,0,0,0,0,0,0,0,0,0,0,0,0,0,0,0],"sum_hessian":[1.41431E2,1.2798509E2,1.3445905E1,5.62736E1,7.1711494E1,2.7389805E0,1.0706924E1,3.2867767E1,2.3405834E1,3.7349735E1,3.4361755E1,2.2409842E0,8.46594E0,3.4361755E1,2.987979E0,2.8883797E1,5.477961E0],"tree_param":{"num_deleted":"0","num_feature":"12","num_nodes":"17","size_leaf_vector":"1"}},{"base_weights":[2.1794876E-2,-1.577196E0,1.1611956E0,-4.390312E-3,-2.5605466E-3,1.0621713E-3,4.3506245E-3],"categories":[],"categories_nodes":[],"categories_segments":[],"categories_sizes":[],"default_left":[0,0,0,0,0,0,0],"id":69,"left_children":[1,3,5,-1,-1,-1,-1],"loss_changes":[2.5948654E2,7.6479187E0,3.8992172E1,0E0,0E0,0E0,0E0],"parents":[2147483647,0,0,1,1,2,2],"right_children":[2,4,6,-1,-1,-1,-1],"split_conditions":[2.8123736E-1,1.8749157E-1,5.624747E-1,-4.390312E-3,-2.5605466E-3,1.0621713E-3,4.3506245E-3],"split_indices":[2,2,2,0,0,0,0],"split_type":[0,0,0,0,0,0,0],"sum_hessian":[1.4242699E2,5.926158E1,8.316541E1,3.959072E1,1.967086E1,3.959072E1,4.357469E1],"tree_param":{"num_deleted":"0","num_feature":"12","num_nodes":"7","size_leaf_vector":"1"}},{"base_weights":[1.2774834E-2,-1.5827962E0,1.1100295E0,-4.2644856E-3,-1.1116934E-3,9.808622E-4,3.5377815E-3],"categories":[],"categories_nodes":[],"categories_segments":[],"categories_sizes":[],"default_left":[0,0,0,0,0,0,0],"id":70,"left_children":[1,3,5,-1,-1,-1,-1],"loss_changes":[2.4499442E2,1.2455856E1,2.1215073E1,0E0,0E0,0E0,0E0],"parents":[2147483647,0,0,1,1,2,2],"right_children":[2,4,6,-1,-1,-1,-1],"split_conditions":[2.8123736E-1,2.3436446E-1,4.6872893E-1,-4.2644856E-3,-1.1116934E-3,9.808622E-4,3.5377815E-3],"split_indices":[2,2,2,0,0,0,0],"split_type":[0,0,0,0,0,0,0],"sum_hessian":[1.3993701E2,5.7020596E1,8.291641E1,4.8554657E1,8.46594E0,2.83858E1,5.4530613E1],"tree_param":{"num_deleted":"0","num_feature":"12","num_nodes":"7","size_leaf_vector":"1"}},{"base_weights":[2.5893396E-2,-1.5609267E0,1.1201018E0,-4.3577645E-3,-1.912172E-3,7.1304804E-4,3.6332612E-3],"categories":[],"categories_nodes":[],"categories_segments":[],"categories_sizes":[],"default_left":[0,0,0,0,0,0,0],"id":71,"left_children":[1,3,5,-1,-1,-1,-1],"loss_changes":[2.658883E2,1.2215134E1,2.9434082E1,0E0,0E0,0E0,0E0],"parents":[2147483647,0,0,1,1,2,2],"right_children":[2,4,6,-1,-1,-1,-1],"split_conditions":[2.8123736E-1,1.8749157E-1,4.6872893E-1,-4.3577645E-3,-1.912172E-3,7.1304804E-4,3.6332612E-3],"split_indices":[2,2,2,0,0,0,0],"split_type":[0,0,0,0,0,0,0],"sum_hessian":[1.5313391E2,6.2498558E1,9.063536E1,4.681167E1,1.5686889E1,2.9381792E1,6.1253567E1],"tree_param":{"num_deleted":"0","num_feature":"12","num_nodes":"7","size_leaf_vector":"1"}},{"base_weights":[2.330924E-2,-1.3825868E0,1.3655237E0,-4.4001173E-3,-1.459527E-3,1.5970758E-3,3.9465204E-3],"categories":[],"categories_nodes":[],"categories_segments":[],"categories_sizes":[],"default_left":[0,0,0,0,0,0,0],"id":72,"left_children":[1,3,5,-1,-1,-1,-1],"loss_changes":[2.635933E2,2.3866623E1,1.3993347E1,0E0,0E0,0E0,0E0],"parents":[2147483647,0,0,1,1,2,2],"right_children":[2,4,6,-1,-1,-1,-1],"split_conditions":[3.2811025E-1,1.8749157E-1,4.6872893E-1,-4.4001173E-3,-1.459527E-3,1.5970758E-3,3.9465204E-3],"split_indices":[2,2,2,0,0,0,0],"split_type":[0,0,0,0,0,0,0],"sum_hessian":[1.3968802E2,6.822552E1,7.1462494E1,4.3076694E1,2.5148823E1,2.0417856E1,5.104464E1],"tree_param":{"num_deleted":"0","num_feature":"12","num_nodes":"7","size_leaf_vector":"1"}},{"base_weights":[-3.0741738E-2,-4.318824E-3,9.893566E-1,7.56236E-2,3.487868E-3,-8.563369E-5,5.121209E-3],"categories":[],"categories_nodes":[],"categories_segments":[],"categories_sizes":[],"default_left":[0,0,0,0,0,0,0],"id":73,"left_children":[1,-1,3,5,-1,-1,-1],"loss_changes":[2.4590488E2,0E0,3.6696304E1,6.679527E0,0E0,0E0,0E0],"parents":[2147483647,0,0,2,2,3,3],"right_children":[2,-1,4,6,-1,-1,-1],"split_conditions":[2.3436446E-1,-4.318824E-3,4.2185605E-1,1E0,3.487868E-3,-8.563369E-5,5.121209E-3],"split_indices":[2,0,2,4,0,0,0],"split_type":[0,0,0,0,0,0,0],"sum_hessian":[1.3620204E2,4.979965E1,8.640239E1,2.9132793E1,5.7269596E1,2.7638805E1,1.4939895E0],"tree_param":{"num_deleted":"0","num_feature":"12","num_nodes":"7","size_leaf_vector":"1"}},{"base_weights":[-1.16077E-1,-1.2650478E0,1.2410092E0,-4.5114784E-3,-1.4083198E-3,1.3437041E-3,3.3657465E-3],"categories":[],"categories_nodes":[],"categories_segments":[],"categories_sizes":[],"default_left":[0,0,0,0,0,0,0],"id":74,"left_children":[1,3,5,-1,-1,-1,-1],"loss_changes":[2.2440915E2,3.2538628E1,7.288254E0,0E0,0E0,0E0,0E0],"parents":[2147483647,0,0,1,1,2,2],"right_children":[2,4,6,-1,-1,-1,-1],"split_conditions":[3.7498313E-1,1.4061868E-1,4.6872893E-1,-4.5114784E-3,-1.4083198E-3,1.3437041E-3,3.3657465E-3],"split_indices":[2,2,2,0,0,0,0],"split_type":[0,0,0,0,0,0,0],"sum_hessian":[1.4392099E2,7.793645E1,6.5984535E1,4.0835712E1,3.710074E1,1.269891E1,5.328562E1],"tree_param":{"num_deleted":"0","num_feature":"12","num_nodes":"7","size_leaf_vector":"1"}},{"base_weights":[-8.145013E-3,-3.6261182E-3,3.1758724E-3],"categories":[],"categories_nodes":[],"categories_segments":[],"categories_sizes":[],"default_left":[0,0,0],"id":75,"left_children":[1,-1,-1],"loss_changes":[2.8880618E2,0E0,0E0],"parents":[2147483647,0,0],"right_children":[2,-1,-1],"split_conditions":[2.8123736E-1,-3.6261182E-3,3.1758724E-3],"split_indices":[2,0,0],"split_type":[0,0,0],"sum_hessian":[1.4416998E2,6.772752E1,7.644246E1],"tree_param":{"num_deleted":"0","num_feature":"12","num_nodes":"3","size_leaf_vector":"1"}},{"base_weights":[2.0453163E-5,-4.2375624E-3,1.0900347E0,3.7051144E-1,3.6992694E-3,8.9943683E-1,6.4063956E-5,3.0488154E-4,3.7451347E-3],"categories":[],"categories_nodes":[],"categories_segments":[],"categories_sizes":[],"default_left":[0,0,0,0,0,0,0,0,0],"id":76,"left_children":[1,-1,3,5,-1,7,-1,-1,-1],"loss_changes":[2.6517307E2,0E0,2.7711914E1,5.9768553E0,0E0,6.619917E0,0E0,0E0,0E0],"parents":[2147483647,0,0,2,2,3,3,5,5],"right_children":[2,-1,4,6,-1,8,-1,-1,-1],"split_conditions":[2.3436446E-1,-4.2375624E-3,4.6872893E-1,4.270111E-1,3.6992694E-3,3.281602E-1,6.4063956E-5,3.0488154E-4,3.7451347E-3],"split_indices":[2,0,2,1,0,1,0,0,0],"split_type":[0,0,0,0,0,0,0,0,0],"sum_hessian":[1.3769603E2,5.2538628E1,8.5157394E1,3.2867767E1,5.228963E1,1.2947908E1,1.9919859E1,5.975958E0,6.9719505E0],"tree_param":{"num_deleted":"0","num_feature":"12","num_nodes":"9","size_leaf_vector":"1"}},{"base_weights":[3.0122275E-2],"categories":[],"categories_nodes":[],"categories_segments":[],"categories_sizes":[],"default_left":[0],"id":77,"left_children":[-1],"loss_changes":[0E0],"parents":[2147483647],"right_children":[-1],"split_conditions":[7.224921E-5],"split_indices":[0],"split_type":[0],"sum_hessian":[1.3919002E2],"tree_param":{"num_deleted":"0","num_feature":"12","num_nodes":"1","size_leaf_vector":"1"}},{"base_weights":[-8.2577795E-2,-3.6705267E-3,1.0830189E0,2.2852838E-1,3.5457974E-3,1.978517E-4,4.0509226E-3],"categories":[],"categories_nodes":[],"categories_segments":[],"categories_sizes":[],"default_left":[0,0,0,0,0,0,0],"id":78,"left_children":[1,-1,3,5,-1,-1,-1],"loss_changes":[2.3740244E2,0E0,2.6325485E1,5.257402E0,0E0,0E0,0E0],"parents":[2147483647,0,0,2,2,3,3],"right_children":[2,-1,4,6,-1,-1,-1],"split_conditions":[2.8123736E-1,-3.6705267E-3,4.6872893E-1,9.4451874E-1,3.5457974E-3,1.978517E-4,4.0509226E-3],"split_indices":[2,0,2,0,0,0,0],"split_type":[0,0,0,0,0,0,0],"sum_hessian":[1.40684E2,6.2747555E1,7.793645E1,2.4650826E1,5.328562E1,2.2409842E1,2.2409842E0],"tree_param":{"num_deleted":"0","num_feature":"12","num_nodes":"7","size_leaf_vector":"1"}},{"base_weights":[1.0855333E-1,-4.462581E-3,1.2362072E0,5.54004E-4,4.1917693E-3],"categories":[],"categories_nodes":[],"categories_segments":[],"categories_sizes":[],"default_left":[0,0,0,0,0],"id":79,"left_children":[1,-1,3,-1,-1],"loss_changes":[2.991145E2,0E0,4.4036148E1,0E0,0E0],"parents":[2147483647,0,0,2,2],"right_children":[2,-1,4,-1,-1],"split_conditions":[2.3436446E-1,-4.462581E-3,4.2185605E-1,5.54004E-4,4.1917693E-3],"split_indices":[2,0,2,0,0],"split_type":[0,0,0,0,0],"sum_hessian":[1.3470805E2,4.9052654E1,8.5655396E1,2.8883797E1,5.67716E1],"tree_param":{"num_deleted":"0","num_feature":"12","num_nodes":"5","size_leaf_vector":"1"}},{"base_weights":[1.1753466E-1,-3.9040095E-3,1.0694629E0,2.7404216E-1,3.852736E-3,4.5826923E-4,5.1212143E-3],"categories":[],"categories_nodes":[],"categories_segments":[],"categories_sizes":[],"default_left":[0,0,0,0,0,0,0],"id":80,"left_children":[1,-1,3,5,-1,-1,-1],"loss_changes":[2.601937E2,0E0,4.3273506E1,6.3064127E0,0E0,0E0,0E0],"parents":[2147483647,0,0,2,2,3,3],"right_children":[2,-1,4,6,-1,-1,-1],"split_conditions":[2.3436446E-1,-3.9040095E-3,4.6872893E-1,1E0,3.852736E-3,4.5826923E-4,5.1212143E-3],"split_indices":[2,0,2,0,0,0,0],"split_type":[0,0,0,0,0,0,0],"sum_hessian":[1.5661989E2,5.527761E1,1.01342285E2,4.0835712E1,6.0506573E1,3.9092724E1,1.7429876E0],"tree_param":{"num_deleted":"0","num_feature":"12","num_nodes":"7","size_leaf_vector":"1"}},{"base_weights":[-1.2711772E-1,-3.7251338E-3,1.0374262E0,1.2681539E-3,3.629724E-3],"categories":[],"categories_nodes":[],"categories_segments":[],"categories_sizes":[],"default_left":[0,0,0,0,0],"id":81,"left_children":[1,-1,3,-1,-1],"loss_changes":[2.2535114E2,0E0,1.8083626E1,0E0,0E0],"parents":[2147483647,0,0,2,2],"right_children":[2,-1,4,-1,-1],"split_conditions":[2.8123736E-1,-3.7251338E-3,5.624747E-1,1.2681539E-3,3.629724E-3],"split_indices":[2,0,2,0,0],"split_type":[0,0,0,0,0],"sum_hessian":[1.3570404E2,6.100457E1,7.469947E1,3.6104744E1,3.8594727E1],"tree_param":{"num_deleted":"0","num_feature":"12","num_nodes":"5","size_leaf_vector":"1"}},{"base_weights":[9.2818975E-2,-1.1713238E0,3.3128005E-3,-4.2047035E-3,-7.997877E-4],"categories":[],"categories_nodes":[],"categories_segments":[],"categories_sizes":[],"default_left":[0,0,0,0,0],"id":82,"left_children":[1,3,-1,-1,-1],"loss_changes":[2.1371762E2,3.228218E1,0E0,0E0,0E0],"parents":[2147483647,0,0,1,1],"right_children":[2,4,-1,-1,-1],"split_conditions":[3.7498313E-1,1.8749157E-1,3.3128005E-3,-4.2047035E-3,-7.997877E-4],"split_indices":[2,2,0,0,0],"split_type":[0,0,0,0,0],"sum_hessian":[1.3122208E2,6.623353E1,6.498854E1,3.9092724E1,2.7140808E1],"tree_param":{"num_deleted":"0","num_feature":"12","num_nodes":"5","size_leaf_vector":"1"}},{"base_weights":[-2.6348457E-2,-3.711781E-3,1.1253978E0,2.4139097E-1,3.8481958E-3,2.6225927E-4,4.1579544E-3],"categories":[],"categories_nodes":[],"categories_segments":[],"categories_sizes":[],"default_left":[0,0,0,0,0,0,0],"id":83,"left_children":[1,-1,3,5,-1,-1,-1],"loss_changes":[2.6829166E2,0E0,3.6902397E1,6.034627E0,0E0,0E0,0E0],"parents":[2147483647,0,0,2,2,3,3],"right_children":[2,-1,4,6,-1,-1,-1],"split_conditions":[2.8123736E-1,-3.711781E-3,4.6872893E-1,1E0,3.8481958E-3,2.6225927E-4,4.1579544E-3],"split_indices":[2,0,2,8,0,0,0],"split_type":[0,0,0,0,0,0,0],"sum_hessian":[1.5313391E2,6.5984535E1,8.714938E1,3.0626783E1,5.6522602E1,2.81368E1,2.4899824E0],"tree_param":{"num_deleted":"0","num_feature":"12","num_nodes":"7","size_leaf_vector":"1"}},{"base_weights":[-4.4496628E-3,-1.6608741E0,1.0004174E0,-4.511478E-3,-2.9280162E-3,4.4249225E-4,3.6392852E-3],"categories":[],"categories_nodes":[],"categories_segments":[],"categories_sizes":[],"default_left":[0,0,0,0,0,0,0],"id":84,"left_children":[1,3,5,-1,-1,-1,-1],"loss_changes":[2.4038347E2,5.2814026E0,3.7909477E1,0E0,0E0,0E0,0E0],"parents":[2147483647,0,0,1,1,2,2],"right_children":[2,4,6,-1,-1,-1,-1],"split_conditions":[2.3436446E-1,1.4061868E-1,4.6872893E-1,-4.511478E-3,-2.9280162E-3,4.4249225E-4,3.6392852E-3],"split_indices":[2,2,2,0,0,0,0],"split_type":[0,0,0,0,0,0,0],"sum_hessian":[1.4441898E2,5.4530613E1,8.988837E1,3.6353745E1,1.8176872E1,3.4859753E1,5.502861E1],"tree_param":{"num_deleted":"0","num_feature":"12","num_nodes":"7","size_leaf_vector":"1"}},{"base_weights":[-5.168665E-2,-4.0871296E-3,2.3960192E-3],"categories":[],"categories_nodes":[],"categories_segments":[],"categories_sizes":[],"default_left":[0,0,0],"id":85,"left_children":[1,-1,-1],"loss_changes":[2.5244041E2,0E0,0E0],"parents":[2147483647,0,0],"right_children":[2,-1,-1],"split_conditions":[2.3436446E-1,-4.0871296E-3,2.3960192E-3],"split_indices":[2,0,0],"split_type":[0,0,0],"sum_hessian":[1.4541498E2,5.6522602E1,8.889237E1],"tree_param":{"num_deleted":"0","num_feature":"12","num_nodes":"3","size_leaf_vector":"1"}},{"base_weights":[-1.22209184E-1],"categories":[],"categories_nodes":[],"categories_segments":[],"categories_sizes":[],"default_left":[0],"id":86,"left_children":[-1],"loss_changes":[0E0],"parents":[2147483647],"right_children":[-1],"split_conditions":[-2.9312252E-4],"split_indices":[0],"split_type":[0],"sum_hessian":[1.4840295E2],"tree_param":{"num_deleted":"0","num_feature":"12","num_nodes":"1","size_leaf_vector":"1"}},{"base_weights":[-7.231726E-2,-9.283606E-3,-1.657338E-3,-1.2552385E0,3.2250374E-3,-4.3373927E-3,-1.0086707E-3],"categories":[],"categories_nodes":[],"categories_segments":[],"categories_sizes":[],"default_left":[0,0,0,0,0,0,0],"id":87,"left_children":[1,3,-1,5,-1,-1,-1],"loss_changes":[5.67069E0,2.226139E2,0E0,3.1728699E1,0E0,0E0,0E0],"parents":[2147483647,0,0,1,1,3,3],"right_children":[2,4,-1,6,-1,-1,-1],"split_conditions":[1E0,3.7498313E-1,-1.657338E-3,1.8749157E-1,3.2250374E-3,-4.3373927E-3,-1.0086707E-3],"split_indices":[9,2,0,2,0,0,0],"split_type":[0,0,0,0,0,0,0],"sum_hessian":[1.4541498E2,1.3196907E2,1.3445905E1,6.872351E1,6.3245552E1,4.1333706E1,2.7389807E1],"tree_param":{"num_deleted":"0","num_feature":"12","num_nodes":"7","size_leaf_vector":"1"}},{"base_weights":[4.3151863E-2,-4.0322384E-3,9.7232175E-1,2.3607683E-4,3.5915829E-3],"categories":[],"categories_nodes":[],"categories_segments":[],"categories_sizes":[],"default_left":[0,0,0,0,0],"id":88,"left_children":[1,-1,3,-1,-1],"loss_changes":[2.289872E2,0E0,4.2618362E1,0E0,0E0],"parents":[2147483647,0,0,2,2],"right_children":[2,-1,4,-1,-1],"split_conditions":[2.3436446E-1,-4.0322384E-3,4.6872893E-1,2.3607683E-4,3.5915829E-3],"split_indices":[2,0,2,0,0],"split_type":[0,0,0,0,0],"sum_hessian":[1.4292499E2,5.0048645E1,9.287634E1,3.4859753E1,5.801659E1],"tree_param":{"num_deleted":"0","num_feature":"12","num_nodes":"5","size_leaf_vector":"1"}},{"base_weights":[-3.0975405E-2,-1.1473445E0,1.2850363E0,-4.2424076E-3,-8.99208E-4,9.088702E-1,3.9087315E-3,6.3419414E-1,4.2181704E-3,9.710729E-1,-3.37299E-4,2.7907442E-3,-1.7592628E-3],"categories":[],"categories_nodes":[],"categories_segments":[],"categories_sizes":[],"default_left":[0,0,0,0,0,0,0,0,0,0,0,0,0],"id":89,"left_children":[1,3,5,-1,-1,7,-1,9,-1,11,-1,-1,-1],"loss_changes":[2.1839278E2,3.860498E1,8.843826E0,0E0,0E0,7.613653E0,0E0,6.4343834E0,0E0,5.636013E0,0E0,0E0,0E0],"parents":[2147483647,0,0,1,1,2,2,5,5,7,7,9,9],"right_children":[2,4,6,-1,-1,8,-1,10,-1,12,-1,-1,-1],"split_conditions":[3.7498313E-1,1.8749157E-1,6.0934764E-1,-4.2424076E-3,-8.99208E-4,6.630738E-1,3.9087315E-3,4.9965042E-1,4.2181704E-3,9.4451874E-1,-3.37299E-4,2.7907442E-3,-1.7592628E-3],"split_indices":[2,2,2,0,0,1,0,1,0,0,0,0,0],"split_type":[0,0,0,0,0,0,0,0,0,0,0,0,0],"sum_hessian":[1.4865195E2,8.042643E1,6.822552E1,4.4570686E1,3.5855747E1,3.261877E1,3.5606747E1,2.4650826E1,7.9679437E0,1.7180878E1,7.4699473E0,1.5437891E1,1.7429876E0],"tree_param":{"num_deleted":"0","num_feature":"12","num_nodes":"13","size_leaf_vector":"1"}},{"base_weights":[-1.1194114E-1,-1.5014608E0,2.266035E-3,-4.5114784E-3,-2.1281242E-3],"categories":[],"categories_nodes":[],"categories_segments":[],"categories_sizes":[],"default_left":[0,0,0,0,0],"id":90,"left_children":[1,3,-1,-1,-1],"loss_changes":[2.1497617E2,1.4740738E1,0E0,0E0,0E0],"parents":[2147483647,0,0,1,1],"right_children":[2,4,-1,-1,-1],"split_conditions":[2.8123736E-1,1.4061868E-1,2.266035E-3,-4.5114784E-3,-2.1281242E-3],"split_indices":[2,2,0,0,0],"split_type":[0,0,0,0,0],"sum_hessian":[1.4641096E2,6.3245552E1,8.316541E1,3.9092724E1,2.415283E1],"tree_param":{"num_deleted":"0","num_feature":"12","num_nodes":"5","size_leaf_vector":"1"}},{"base_weights":[4.3443393E-2,-4.110115E-3,1.0976676E0,1.3175525E-3,4.18716E-3],"categories":[],"categories_nodes":[],"categories_segments":[],"categories_sizes":[],"default_left":[0,0,0,0,0],"id":91,"left_children":[1,-1,3,-1,-1],"loss_changes":[2.656645E2,0E0,3.1854187E1,0E0,0E0],"parents":[2147483647,0,0,2,2],"right_children":[2,-1,4,-1,-1],"split_conditions":[2.3436446E-1,-4.110115E-3,5.624747E-1,1.3175525E-3,4.18716E-3],"split_indices":[2,0,2,0,0],"split_type":[0,0,0,0,0],"sum_hessian":[1.4342299E2,5.378362E1,8.9639366E1,4.8554657E1,4.108471E1],"tree_param":{"num_deleted":"0","num_feature":"12","num_nodes":"5","size_leaf_vector":"1"}},{"base_weights":[3.2160588E-2],"categories":[],"categories_nodes":[],"categories_segments":[],"categories_sizes":[],"default_left":[0],"id":92,"left_children":[-1],"loss_changes":[0E0],"parents":[2147483647],"right_children":[-1],"split_conditions":[7.713817E-5],"split_indices":[0],"split_type":[0],"sum_hessian":[1.42178E2],"tree_param":{"num_deleted":"0","num_feature":"12","num_nodes":"1","size_leaf_vector":"1"}},{"base_weights":[-5.7451084E-2,-1.6098055E0,2.736595E-3,-4.5114784E-3,-2.7193436E-3],"categories":[],"categories_nodes":[],"categories_segments":[],"categories_sizes":[],"default_left":[0,0,0,0,0],"id":93,"left_children":[1,3,-1,-1,-1],"loss_changes":[2.5199213E2,7.6168213E0,0E0,0E0,0E0],"parents":[2147483647,0,0,1,1],"right_children":[2,4,-1,-1,-1],"split_conditions":[2.8123736E-1,1.4061868E-1,2.736595E-3,-4.5114784E-3,-2.7193436E-3],"split_indices":[2,2,0,0,0],"split_type":[0,0,0,0,0],"sum_hessian":[1.3545505E2,5.9012585E1,7.644246E1,3.7598736E1,2.1413849E1],"tree_param":{"num_deleted":"0","num_feature":"12","num_nodes":"5","size_leaf_vector":"1"}},{"base_weights":[1.743174E-1,-2.7539295E-3,3.791352E-3],"categories":[],"categories_nodes":[],"categories_segments":[],"categories_sizes":[],"default_left":[0,0,0],"id":94,"left_children":[1,-1,-1],"loss_changes":[2.561043E2,0E0,0E0],"parents":[2147483647,0,0],"right_children":[2,-1,-1],"split_conditions":[4.2185605E-1,-2.7539295E-3,3.791352E-3],"split_indices":[2,0,0],"split_type":[0,0,0],"sum_hessian":[1.3769603E2,7.09645E1,6.673153E1],"tree_param":{"num_deleted":"0","num_feature":"12","num_nodes":"3","size_leaf_vector":"1"}},{"base_weights":[-8.145013E-3,-1.5769271E0,1.192356E0,-4.159598E-3,-1.2002293E-3,6.323622E-1,4.0633134E-3,9.929334E-4,3.7925865E-3],"categories":[],"categories_nodes":[],"categories_segments":[],"categories_sizes":[],"default_left":[0,0,0,0,0,0,0,0,0],"id":95,"left_children":[1,3,5,-1,-1,7,-1,-1,-1],"loss_changes":[2.715189E2,1.0583374E1,2.2946777E1,0E0,0E0,7.997446E0,0E0,0E0,0E0],"parents":[2147483647,0,0,1,1,2,2,5,5],"right_children":[2,4,6,-1,-1,8,-1,-1,-1],"split_conditions":[2.8123736E-1,2.3436446E-1,5.624747E-1,-4.159598E-3,-1.2002293E-3,6.943578E-1,4.0633134E-3,9.929334E-4,3.7925865E-3],"split_indices":[2,2,2,0,0,1,0,0,0],"split_type":[0,0,0,0,0,0,0,0,0],"sum_hessian":[1.4416998E2,6.2498558E1,8.1671425E1,5.4530613E1,7.9679437E0,3.8594727E1,4.3076694E1,3.1373777E1,7.220949E0],"tree_param":{"num_deleted":"0","num_feature":"12","num_nodes":"9","size_leaf_vector":"1"}},{"base_weights":[1.6471584E-1,-8.769097E-1,5.126466E-4,-4.511467E-3,1.9103274E-3],"categories":[],"categories_nodes":[],"categories_segments":[],"categories_sizes":[],"default_left":[0,0,0,0,0],"id":96,"left_children":[1,3,-1,-1,-1],"loss_changes":[6.788949E0,1.0040196E1,0E0,0E0,0E0],"parents":[2147483647,0,0,1,1],"right_children":[2,4,-1,-1,-1],"split_conditions":[1.2697405E-1,3.7498313E-1,5.126466E-4,-4.511467E-3,1.9103274E-3],"split_indices":[1,2,0,0,0],"split_type":[0,0,0,0,0],"sum_hessian":[1.3296506E2,5.975958E0,1.26989105E2,3.7349737E0,2.2409842E0],"tree_param":{"num_deleted":"0","num_feature":"12","num_nodes":"5","size_leaf_vector":"1"}},{"base_weights":[-4.6918686E-2,-1.5349785E0,2.7492212E-3,-4.5114784E-3,-2.2274307E-3],"categories":[],"categories_nodes":[],"categories_segments":[],"categories_sizes":[],"default_left":[0,0,0,0,0],"id":97,"left_children":[1,3,-1,-1,-1],"loss_changes":[2.6525003E2,1.394519E1,0E0,0E0,0E0],"parents":[2147483647,0,0,1,1],"right_children":[2,4,-1,-1,-1],"split_conditions":[2.8123736E-1,1.4061868E-1,2.7492212E-3,-4.5114784E-3,-2.2274307E-3],"split_indices":[2,2,0,0,0],"split_type":[0,0,0,0,0],"sum_hessian":[1.4939894E2,6.648253E1,8.291641E1,4.23297E1,2.415283E1],"tree_param":{"num_deleted":"0","num_feature":"12","num_nodes":"5","size_leaf_vector":"1"}},{"base_weights":[1.16743416E-1,-1.6633133E0,1.0726998E0,-4.511478E-3,-2.652531E-3,1.6111003E-4,3.8974131E-3],"categories":[],"categories_nodes":[],"categories_segments":[],"categories_sizes":[],"default_left":[0,0,0,0,0,0,0],"id":98,"left_children":[1,3,5,-1,-1,-1,-1],"loss_changes":[2.4617525E2,6.131546E0,5.2262802E1,0E0,0E0,0E0,0E0],"parents":[2147483647,0,0,1,1,2,2],"right_children":[2,4,6,-1,-1,-1,-1],"split_conditions":[2.3436446E-1,1.4061868E-1,4.2185605E-1,-4.511478E-3,-2.652531E-3,1.6111003E-4,3.8974131E-3],"split_indices":[2,2,2,0,0,0,0],"split_type":[0,0,0,0,0,0,0],"sum_hessian":[1.4466798E2,5.0546642E1,9.412134E1,3.6353745E1,1.41929E1,3.3365765E1,6.075557E1],"tree_param":{"num_deleted":"0","num_feature":"12","num_nodes":"7","size_leaf_vector":"1"}},{"base_weights":[-4.50785E-3,-5.543767E-2,2.004772E-3,-4.0132114E-1,7.310585E-2,-1.4880551E0,3.0341514E-3,-3.8492284E-3,1.151296E0,-4.511476E-3,-1.8843707E-3,7.797341E-4,3.5518662E-3],"categories":[],"categories_nodes":[],"categories_segments":[],"categories_sizes":[],"default_left":[0,0,0,0,0,0,0,0,0,0,0,0,0],"id":99,"left_children":[1,3,-1,5,7,9,-1,-1,11,-1,-1,-1,-1],"loss_changes":[6.340756E0,6.2106805E0,0E0,6.853668E1,1.842425E2,6.3217506E0,0E0,0E0,1.6881546E1,0E0,0E0,0E0,0E0],"parents":[2147483647,0,0,1,1,3,3,4,4,5,5,8,8],"right_children":[2,4,-1,6,8,10,-1,-1,12,-1,-1,-1,-1],"split_conditions":[9.4451874E-1,3.5693496E-1,2.004772E-3,3.7498313E-1,2.3436446E-1,1.8749157E-1,3.0341514E-3,-3.8492284E-3,4.2185605E-1,-4.511476E-3,-1.8843707E-3,7.797341E-4,3.5518662E-3],"split_indices":[0,1,0,2,2,2,0,0,2,0,0,0,0],"split_type":[0,0,0,0,0,0,0,0,0,0,0,0,0],"sum_hessian":[1.4815395E2,1.3968802E2,8.46594E0,3.7847733E1,1.0184028E2,2.2907839E1,1.4939895E1,3.9839718E1,6.200056E1,1.4690896E1,8.216942E0,1.7678875E1,4.4321686E1],"tree_param":{"num_deleted":"0","num_feature":"12","num_nodes":"13","size_leaf_vector":"1"}}]},"name":"gbtree"},"learner_model_param":{"base_score":"[4.6834937E-1]","boost_from_average":"1","num_class":"0","num_feature":"12","num_target":"1"},"objective":{"name":"binary:logistic","reg_loss_param":{"scale_pos_weight":"1"}}},"version":[3,1,2]}